nep3 6 Mg Ni Zn Co Cu O 
cutoff 8.4 3.9 260 28
n_max 10 9
basis_size 12 12
l_max 4 2 0
ANN 30 30 0
 -3.5632032e-04
 -5.2582601e-04
  8.3641618e-02
  3.4921933e-02
 -5.0771129e-03
  2.4420602e-02
  5.4551740e-03
  1.4896451e-02
  4.0743638e-02
 -1.5637219e-02
 -1.2874383e-02
 -6.5543242e-02
  2.9992288e-01
 -5.2829545e-02
 -1.4532549e-02
  3.2861346e-01
 -1.2951922e-01
 -5.6884283e-01
 -3.2057688e-01
 -2.4249294e-01
 -4.7044995e-01
 -6.3844755e-02
 -4.9659219e-03
 -1.2023426e-02
  2.4965385e-02
  2.6172495e-01
  8.4741503e-02
 -5.5438805e-01
 -4.5030929e-02
 -1.5612246e-01
 -4.4686729e-01
 -2.1016133e-01
 -1.6628222e-01
 -1.6739208e-01
 -2.5400245e-01
  3.1483224e-01
  2.6486108e-01
 -6.1375850e-01
 -2.3848476e-01
  1.7911181e-01
  1.1961872e-01
 -2.0690484e-01
 -7.3294216e-01
 -2.5985879e-01
  3.9008880e-01
  4.2365145e-02
  5.3535116e-01
 -1.0043201e+00
 -7.0175147e-01
 -2.1001451e+00
  1.0848764e+00
 -1.4819193e-01
 -2.3224980e-03
  2.9003699e-03
  3.5721315e-03
  1.4293928e-02
  7.3114656e-02
  9.6071057e-02
 -5.5587720e-02
 -3.5598867e-02
  1.7567746e-02
 -1.5496513e+00
  3.2241791e-01
 -1.2167026e+00
 -2.4311123e+00
 -1.0349226e+00
  6.1731809e-01
 -2.1973710e+00
  1.4169610e+00
  8.0447131e-01
  4.4773012e-01
  1.1010123e+00
  8.3705336e-01
  9.8840660e-01
  2.4736750e-01
 -1.3557841e+00
 -5.2547145e-01
 -1.3404912e+00
 -3.7321413e-01
  2.0777626e+00
 -5.6339192e-01
 -9.0124071e-01
  1.0695974e+00
  4.4380000e-01
 -3.9514503e-01
 -1.4151965e+00
  1.4911849e+00
 -4.0125358e-01
  1.2487277e+00
  2.6517949e+00
  2.3002491e+00
 -5.6077021e-01
  1.5092326e+00
 -1.2323525e+00
 -2.9380080e-01
 -3.6160699e-01
  1.1369206e+00
  3.1003165e+00
 -9.0824711e-01
  6.9364893e-01
 -6.5913564e-01
 -4.6752417e-01
  1.9787691e+00
  1.0284572e+00
  3.8132814e-01
 -7.8559792e-01
  1.3149899e-01
  2.2441466e-01
 -1.4115644e+00
 -3.1797993e-01
  2.7940280e+00
 -1.3497453e+00
 -1.4304405e+00
 -6.1379272e-01
  2.8024095e-01
 -2.5193948e-01
 -1.4748724e+00
  9.3398643e-01
  1.3713720e+00
 -2.3778005e+00
 -3.0275154e-01
  4.0434781e-01
  6.8046367e-01
 -8.0088288e-01
 -1.7082475e+00
 -2.2586353e-01
 -4.5014289e-01
 -2.2461431e+00
 -1.0836277e+00
 -1.0890901e+00
 -1.5110692e+00
 -2.2301063e-01
 -8.6919433e-01
 -1.3266472e+00
  3.5119009e-01
 -9.0659618e-02
  2.2909327e-01
  1.9526980e+00
  3.2094938e-01
 -2.6196046e+00
 -6.6573077e-01
  1.4154559e+00
 -2.2639427e+00
  1.2112904e+00
 -1.1118491e+00
 -1.5257236e+00
 -4.1732170e-02
 -1.9890991e+00
 -2.0742917e+00
  1.4751874e+00
 -2.2974950e-01
 -8.6695707e-01
  5.6106210e-01
  2.7579966e+00
  1.0909804e-01
  7.5603676e-01
  1.7704662e+00
 -2.7051711e+00
 -9.1569746e-01
  2.4705310e+00
 -4.5858052e-01
  8.9478159e-01
 -1.2608385e+00
 -1.7726201e+00
 -1.5184087e+00
  4.8612747e-01
  1.0888004e+00
  1.0749152e-01
 -1.2640456e+00
  5.0911540e-01
  9.0649378e-01
 -1.2653355e-01
 -1.7579707e+00
  5.0500184e-01
 -1.2590359e+00
 -2.1193659e+00
 -1.0275785e+00
 -1.1468220e+00
 -4.5785415e-01
  2.3556082e+00
 -2.3354895e-02
 -1.1470703e+00
  1.1243840e+00
  2.0242669e-01
 -1.9387567e-01
  1.9990113e+00
  1.1366007e+00
 -3.8743939e+00
 -7.7890259e-01
 -1.7339641e+00
 -3.2699084e-01
 -1.6981566e-02
  7.1227175e-01
 -1.5141053e-01
 -4.7218379e-01
  7.1822464e-01
 -1.3150438e+00
  1.2871901e+00
 -2.2155395e-01
 -1.9843780e+00
 -1.0485394e+00
 -8.2351357e-02
  8.0310953e-01
 -7.5609636e-01
  3.5518080e-02
  4.6676487e-01
  1.4678457e+00
  5.5045885e-01
 -4.7433269e-01
 -2.7276804e+00
  5.8643407e-01
 -4.3706312e+00
 -1.2358222e+00
  2.2473340e+00
  8.4713864e-01
  4.8623344e-01
  4.2682758e-01
  3.7709949e+00
 -1.7264485e+00
 -8.5943490e-01
  6.4242965e-01
 -1.1965381e+00
  2.6938682e+00
 -1.8907816e+00
 -2.8871610e+00
 -1.0642194e+00
  2.4104886e+00
 -1.0965264e+00
 -1.0459987e+00
 -2.5293779e-01
 -8.0780196e-01
 -2.1622653e-01
 -1.3566210e+00
  7.6942527e-01
 -2.1689992e-01
 -2.2657833e+00
  1.8674427e-01
 -2.5575960e+00
  1.7427025e+00
 -8.8699794e-01
  1.0473934e-01
 -1.8018576e+00
 -2.0678684e-01
  6.3745797e-01
  1.1552531e-01
 -2.6563768e+00
 -1.7630563e+00
 -4.5016280e-01
 -1.9985070e+00
 -8.5360140e-01
 -2.4047101e-02
 -1.6073180e+00
  3.1848231e-01
 -5.5828458e-01
 -1.4317980e+00
 -2.7952514e+00
  7.8867728e-01
  3.5795617e-01
  8.4908813e-01
 -1.4933935e+00
  6.2863708e-01
 -2.0440831e+00
 -1.1136703e+00
  1.8705837e+00
 -1.1767595e+00
  2.3940803e-01
 -5.3952384e-01
 -2.3691122e-01
 -1.0753403e+00
 -2.1841640e+00
  3.3836474e-03
 -2.5877371e-01
 -6.3404071e-01
  1.4159293e+00
  4.0699634e-01
  1.9311173e-01
 -9.7511131e-01
  1.8350091e+00
 -1.5242009e-01
 -1.6476824e+00
  5.5132884e-01
  1.6886457e+00
 -9.4970979e-02
 -2.6978545e+00
 -2.0742172e-01
 -2.7515534e-01
  3.1565721e+00
 -1.6495740e+00
 -1.2259725e+00
  3.1550547e-01
 -6.5676218e-01
 -2.5736648e-01
 -2.3188231e+00
 -1.3090611e+00
  3.5061049e-01
  1.3803774e+00
 -9.9098593e-01
  1.3326117e+00
  6.7637259e-01
 -1.5264012e+00
  4.0482342e-01
  4.7093871e-01
  1.1844002e+00
 -9.6690714e-01
 -6.5602303e-01
  5.0912529e-01
 -2.9880128e+00
 -1.0735942e+00
  2.1393299e-01
  4.0100008e-01
  4.6193403e-01
 -9.7709334e-01
 -7.0057797e-01
 -2.4444389e-01
 -1.8339666e+00
 -6.6162515e-01
 -4.6085757e-01
  2.0462430e+00
  8.6137384e-01
  8.5523230e-01
 -8.1595933e-01
 -2.0949051e+00
 -6.2714082e-01
 -1.8022826e+00
  5.4566801e-01
  1.3673625e+00
  8.1478542e-01
 -4.2936128e-01
  5.8957279e-01
  1.0779454e+00
 -4.9845397e-01
 -1.9906846e+00
 -1.1066141e+00
 -6.1412483e-01
  9.4745851e-01
 -2.8661115e+00
 -1.0709153e+00
 -8.5505319e-01
 -1.4777222e+00
  4.3313059e-01
 -8.6802083e-01
 -1.0450909e+00
  1.1974598e+00
 -2.1152780e+00
  1.5526625e+00
 -2.7011403e-01
 -1.0898423e+00
  8.4892845e-01
 -1.0461463e+00
 -1.5249042e-01
 -4.8069826e-01
 -9.6141350e-01
  2.3652687e+00
 -1.5403713e+00
 -3.2144314e-01
  1.0897251e+00
 -2.9598365e+00
 -2.3478298e+00
 -9.4352680e-01
  1.3926886e+00
 -6.8696201e-01
 -1.8209232e-01
  1.3488247e+00
  1.3214065e+00
  1.8094793e-02
 -2.9806513e-01
  4.1121769e-01
 -2.6139501e-01
  3.8671523e-01
  3.3005115e-01
 -8.5388921e-02
  2.5285056e-02
 -1.7095190e-01
 -1.2883061e-01
  2.3867698e-01
  3.4584889e-01
  1.7089181e-01
 -2.0811403e+00
  8.8575852e-01
 -4.6684721e-01
  2.4977839e+00
 -2.2534940e+00
  4.2463940e-02
 -3.2135823e-01
 -1.4165907e-01
 -8.8097610e-02
 -2.7494049e-01
  2.0552762e+00
 -5.1273489e-01
 -1.1045026e+00
  3.8548076e-01
  1.2984986e+00
  5.8222139e-01
  7.1825236e-01
 -1.9092907e-01
  2.9426851e+00
 -1.0919082e+00
  1.8797930e-01
  1.5087155e+00
  2.0184200e-01
  1.7505406e+00
  5.5000567e-01
 -2.4448314e+00
 -9.6904331e-01
  1.6471492e-01
 -1.1422993e+00
 -1.1962069e+00
  8.8251656e-01
 -1.8778275e+00
 -7.7480751e-01
 -8.2734734e-01
  2.0808181e-02
  2.6866290e-01
  9.1017765e-01
  1.0217345e+00
  9.5917356e-01
  1.5537190e+00
  5.4821402e-01
 -6.9419813e-01
 -7.4526846e-01
 -1.8423547e+00
 -4.9977750e-01
  2.4797501e-01
  4.3377656e-01
 -1.4238135e+00
  1.2221317e+00
 -6.8364632e-01
 -2.7007127e+00
  1.1334465e+00
  1.8052533e-01
  3.8489187e-01
 -5.5158115e-03
 -1.4233863e-02
  1.3525988e+00
 -4.8661977e-01
 -2.4999797e+00
 -4.3598974e-01
  6.4102560e-01
  6.9143963e-01
 -1.1729835e-02
 -2.0014083e-01
 -1.5075113e+00
 -1.6681483e-01
  1.1756860e-01
 -1.2294495e+00
 -7.2175187e-01
 -2.2969515e+00
  1.2849098e+00
  2.8971484e+00
 -1.3380563e-01
 -4.4186530e-01
 -1.5525415e+00
  4.3284802e+00
 -3.1331308e+00
 -2.0491347e+00
 -1.4074908e-01
  2.1939943e+00
  7.2249836e-01
 -1.5101571e-01
 -3.4793723e-01
  4.5968592e-01
 -1.4401027e+00
 -2.0963638e+00
  2.7195361e+00
 -2.4127696e+00
  1.3958782e+00
 -8.4490407e-01
 -1.0494339e+00
 -3.1981583e+00
 -1.8951808e+00
 -9.1564190e-01
  5.0061977e-01
  2.3368087e+00
 -4.6325102e-01
 -2.5392908e-01
 -2.9882592e-01
  8.8000089e-02
  1.3269105e+00
  8.7155306e-01
  8.0719447e-01
 -1.4497114e+00
 -1.1055714e-01
  1.8548854e-01
 -3.8245940e-01
 -1.9462856e+00
 -1.1727350e+00
 -6.6938177e-02
 -1.0746752e-01
 -5.9793240e-01
 -1.5139408e-01
 -9.9141765e-01
 -1.2724419e+00
  1.0533739e+00
 -1.7014133e-02
  3.1456247e-01
  1.7908925e-01
 -7.4277246e-01
 -7.2710645e-01
 -7.4427116e-01
 -1.5358657e+00
 -1.1217489e+00
  1.0391033e-01
 -1.5867001e+00
  2.4880674e+00
 -7.7135420e-01
 -1.9226565e+00
  7.7516019e-01
  4.2259043e-01
 -1.7120704e-01
 -6.8967372e-01
 -5.1178241e-01
  7.2089928e-01
  9.8002619e-01
  2.4995606e+00
  6.0803771e-01
  3.1119323e+00
  5.8119863e-01
 -2.2670016e+00
  1.0966715e+00
 -5.4746330e-01
  1.7070870e+00
  6.7313200e-01
 -7.0410866e-01
 -6.5412581e-01
 -6.1466936e-02
  2.1290797e-01
  2.4522750e-01
  1.7267623e+00
  2.2627511e+00
 -4.0925643e-01
  3.1147701e-01
 -3.0142882e+00
 -1.6082388e+00
 -1.2828523e-01
  3.2570684e+00
  1.5263078e-01
 -9.6332246e-01
  2.1092154e-01
 -4.7339749e-01
 -3.3693630e-01
  7.7151036e-01
 -3.5953876e-01
 -1.4258592e+00
  1.4497356e+00
  3.2700002e+00
 -1.6124957e+00
 -7.5408971e-01
 -3.6551547e-01
 -9.6292967e-01
 -1.1164045e-01
 -7.6128286e-01
 -2.7302808e-01
 -9.3561292e-01
  5.4061562e-01
  1.5521773e+00
 -1.8048753e-01
  1.9161484e+00
 -7.6753974e-02
 -1.1074861e+00
  1.1280665e+00
  3.7256861e+00
  1.1792146e-01
  5.3777093e-01
  1.9371706e+00
  6.4214170e-01
  2.9265895e-01
  1.0681135e-01
  9.2859060e-01
  2.0292132e+00
 -2.4689267e+00
  2.0416934e+00
 -1.7357814e+00
 -2.8996472e+00
 -1.4026910e+00
 -7.7785403e-01
  3.8334224e-01
  2.0317194e+00
 -3.6173704e-01
  8.1546438e-01
  6.1177140e-01
 -2.0208519e+00
  2.7886164e+00
  6.4438748e-01
 -1.2758732e+00
 -5.4684651e-01
  1.6225120e-01
  1.3599647e+00
 -1.0055302e+00
 -4.9750349e-01
  1.2988058e+00
 -1.1072056e+00
  1.5896100e+00
  3.7838802e-01
  1.6274234e+00
  4.2527160e-01
  3.3347468e+00
 -2.8274295e-01
 -5.4396689e-01
  8.3703190e-01
 -3.7682506e-01
 -1.9002831e+00
  2.4223106e+00
 -8.3126497e-01
 -3.3447996e-01
  1.7455979e-01
  2.9858291e-01
  1.4183372e-01
  1.3572144e-02
  8.8855976e-01
  1.1983147e+00
 -2.2249315e+00
 -4.5207743e-02
 -4.9277848e-01
  1.8774313e+00
 -1.7154423e+00
 -1.0918892e-01
  5.6447953e-01
 -1.4668703e+00
 -2.9127166e+00
  1.3255379e+00
 -5.7664675e-01
 -5.1883465e-01
 -1.1886330e+00
 -1.4198239e+00
 -1.2002748e+00
 -5.1501113e-01
  3.0798757e+00
  1.3696128e-01
  3.0946308e-01
 -1.1068661e+00
 -7.5120395e-01
  1.1084467e+00
  9.7926877e-02
  9.1269130e-01
  2.8662739e+00
  2.6441815e+00
 -2.0999801e-01
 -4.2630613e-02
  1.4139105e+00
  2.6678660e+00
 -1.2984406e+00
 -5.7659400e-01
 -7.2117645e-01
  5.1586401e-01
  8.6425042e-01
 -4.1241404e-01
 -9.5717862e-02
 -1.0067486e+00
 -2.3308144e+00
  1.5480535e+00
  1.0105569e+00
  5.4804504e-01
 -1.1712456e+00
  3.6200935e-01
 -3.9715704e-01
 -2.2571571e+00
 -2.8461942e-01
 -1.7068726e+00
  5.7895643e-01
  1.3668393e+00
  1.8411927e+00
 -2.4991212e+00
 -2.7309532e+00
 -9.7145244e-02
 -2.2092545e+00
  2.4740272e+00
  1.7369999e-01
 -2.4184303e+00
 -2.5324178e-01
  8.7761007e-02
 -1.8627867e-01
  1.1877453e+00
 -2.7833591e+00
  5.8538906e-02
  1.8807445e-01
  1.4639059e+00
  7.3168349e-01
  2.2621088e-01
 -1.4596620e+00
  7.5423664e-01
 -1.6729221e+00
 -1.1856697e+00
  7.1593136e-01
  2.5784512e+00
  4.1841540e-01
  8.7417983e-02
 -1.9125345e+00
  7.8418726e-01
 -1.7511892e+00
  2.0380383e+00
 -1.7412966e+00
 -1.2878175e+00
 -9.3016773e-01
 -9.6331185e-01
  9.7644544e-01
  2.2627528e+00
 -3.3955109e-01
 -2.4514148e+00
 -5.6006473e-01
 -1.8561746e-01
  6.5979493e-01
 -2.0983257e+00
  1.0495762e+00
  1.1298834e+00
 -6.8544698e-01
  1.6474489e+00
 -8.2812363e-01
 -9.8105407e-01
  2.6679187e+00
  2.0556207e+00
 -1.4092078e+00
  2.4588635e+00
  1.7085232e+00
 -1.1140506e+00
 -3.9114392e-01
 -4.9858743e-01
  6.8252766e-01
 -2.8740898e-01
 -3.4105508e+00
 -8.5765892e-01
  1.9680244e+00
  3.7254456e-01
 -1.6015344e+00
 -1.5966386e-01
 -8.6139619e-02
 -9.1239387e-01
 -2.1443987e+00
  1.3648560e+00
 -1.1011343e+00
 -1.8514208e+00
 -2.2140038e-01
  1.1648334e+00
  5.4556543e-01
  3.2103151e-01
 -3.2205048e-01
  1.3525778e+00
  9.6266013e-01
 -1.9058350e+00
  2.8495805e+00
  2.1064141e+00
  4.7083754e-02
  7.7111870e-01
 -2.5987549e+00
 -1.0789185e+00
  7.0265412e-01
  1.3667048e+00
  1.2611232e+00
 -1.9826625e-01
 -1.9424374e+00
 -4.6986437e-01
 -2.6359284e+00
 -4.2301169e-01
  5.3803748e-01
  1.3137780e+00
  1.8652993e+00
 -1.0260502e+00
 -6.1022264e-01
 -4.7611740e-01
 -3.6123624e+00
 -5.1704705e-01
  1.4210845e+00
  6.5795207e-01
  1.8088531e+00
 -5.0823551e-01
 -7.2231364e-01
 -1.3161221e-01
 -5.1536918e-02
  7.7338375e-02
  5.1188672e-01
  2.5078366e-02
  7.8269273e-01
 -9.3333453e-01
  3.1362492e-01
  7.0473903e-01
 -1.3935007e-01
 -2.8742093e-01
 -1.1925284e+00
 -1.7259526e+00
  1.3703440e+00
 -6.0732447e-02
 -2.8166476e-01
 -8.7956947e-01
  1.2903928e+00
 -4.0609476e-01
 -7.3201323e-01
  1.6347950e+00
  1.4143002e+00
  2.1818709e+00
  9.9995202e-01
 -9.6436423e-01
 -1.6546197e+00
 -1.2034967e+00
  5.5410755e-01
  9.9678260e-01
 -7.3498893e-01
  1.2160392e+00
 -4.6950787e-01
  1.0220718e+00
 -2.5739488e-01
  7.1564990e-01
  1.5683075e+00
 -1.3999368e+00
  1.5890262e+00
 -4.1398352e-01
  1.5917715e+00
  1.3683521e+00
  9.5065236e-01
 -1.8372343e+00
  1.3720984e+00
  1.2038225e+00
 -2.3749709e-01
  3.8812047e-01
  2.0979260e-01
 -1.8626667e+00
  2.5527194e+00
 -1.1793590e+00
 -2.3317959e+00
 -1.0373703e+00
 -2.3273675e+00
 -2.2440364e+00
 -3.5832214e-01
  1.1265165e+00
 -9.3857698e-02
 -4.0772358e-01
  1.6644631e-01
  8.2753420e-01
 -3.7394297e-01
 -1.2534046e+00
  1.5364664e+00
  3.5584977e-01
  6.0669953e-01
  1.3603718e+00
 -1.8722725e+00
  5.3905720e-01
 -1.0748468e-02
 -5.6307864e-01
  2.6569312e+00
  4.1724706e-01
 -1.4824345e+00
 -1.9843321e+00
  3.0475223e+00
 -1.1759971e-03
 -1.3786139e+00
  1.1445683e+00
 -1.2523067e+00
 -7.2614156e-02
 -1.0505273e+00
 -9.8865926e-01
 -1.2162074e-01
 -3.9082041e+00
 -1.1677278e+00
  5.5382806e-01
 -1.1746589e+00
 -3.6942008e+00
  1.3935585e+00
 -1.7867389e+00
 -7.2700936e-01
  1.0228907e+00
  1.4213649e+00
 -4.1532621e-01
  1.4830623e+00
 -9.8186284e-01
 -1.3221297e+00
  9.5438635e-01
 -1.2854398e+00
  1.1314678e+00
  7.0016557e-01
  3.0222794e-01
 -1.7577014e+00
 -3.0534461e-01
 -1.5891974e+00
  4.3628827e-01
 -1.7657781e+00
 -1.0496812e+00
  1.5566312e+00
 -2.7023736e-02
  4.4233191e-01
  1.5864255e-01
 -9.5897031e-01
  9.1526920e-01
  1.2489861e-01
  1.1731789e+00
  4.1648403e-01
  1.7750419e+00
 -1.5475801e+00
  4.9613136e-01
 -3.2746491e-01
  3.0788946e-01
  1.0303656e+00
 -9.7338402e-01
 -3.5362878e-01
  1.3369037e+00
  1.3868555e-01
  1.3758512e+00
  1.3262101e+00
 -4.4852051e-01
 -2.2995397e-02
 -7.8312272e-01
  9.7744501e-01
 -1.5177380e+00
  6.8583965e-01
 -1.0909604e+00
 -8.0647504e-01
 -1.4239944e+00
  2.6349300e-01
 -2.4530981e+00
  2.8180718e-01
  4.1409403e-01
  2.0851893e+00
 -2.7256961e+00
  6.3252890e-01
 -2.3731575e+00
 -2.1575223e-01
  2.1974847e+00
 -2.2966545e+00
 -7.9646426e-01
 -1.4042439e+00
 -1.2907887e+00
 -1.2727697e+00
  1.3528916e+00
  9.7741103e-01
  6.1653805e-01
  1.2336295e+00
 -1.9389435e+00
 -1.1282572e+00
 -1.0957252e-01
  8.2268953e-02
  7.7605981e-01
 -7.5841039e-01
  3.1321795e+00
  8.6028755e-01
  3.9326009e-01
  1.1555686e+00
 -1.6125029e+00
  6.7214656e-01
 -1.1879090e+00
 -1.3242189e+00
 -1.0875137e+00
  3.5150191e-01
  4.3664944e-01
  3.8597998e-01
  1.6044146e+00
 -9.2384446e-01
  3.0376093e+00
  6.3226141e-02
  1.2292035e+00
 -2.1218219e-01
 -7.3314756e-01
 -1.0815577e-01
  2.5303292e-01
  5.6182146e-01
 -6.6184604e-01
  2.8447835e+00
  9.6927226e-01
  2.0940139e+00
 -2.6034169e+00
 -1.2166175e+00
  7.0403433e-01
  1.3298252e+00
  1.2401555e+00
  7.9530770e-01
 -1.2160462e+00
 -2.7541900e-01
  6.0803920e-01
  1.6586753e+00
 -1.3234452e+00
  2.4329998e+00
  1.1027250e+00
  1.5294702e+00
  7.0166713e-01
  7.5114018e-01
  2.0805150e-01
 -2.2729113e+00
 -1.2216266e+00
  4.8723581e-01
  1.3867444e+00
 -2.2497859e+00
  1.8215172e+00
  1.8124235e+00
  1.9379529e+00
 -1.4779098e+00
  2.5303140e-01
  1.6849205e+00
  4.8051664e-01
  1.1926866e+00
 -2.2636130e-02
  5.9250212e-01
  8.0823886e-01
  1.8141787e+00
 -2.7782664e-01
 -1.6308937e+00
 -2.9819169e+00
  1.4132223e-01
  4.6532866e-01
 -1.7592899e+00
 -8.8571358e-01
 -5.8928370e-01
 -1.5943280e+00
 -2.4877724e-01
  8.2992800e-03
  5.3133839e-01
  6.8864733e-01
  7.9306352e-01
 -1.0640595e+00
 -4.1174439e-01
 -1.4546875e+00
 -2.7581808e-01
 -8.5196537e-01
  7.3728806e-01
 -8.3541304e-01
 -2.5391729e+00
 -1.2630521e+00
 -2.6196513e-01
  8.3840168e-01
 -7.0735919e-01
 -7.3325950e-01
  1.0050904e+00
  1.2873104e-01
  4.6913111e-01
 -1.9006314e-02
  2.0162787e+00
 -9.6260637e-01
 -1.2918500e+00
 -4.0289983e-01
 -1.0393322e+00
  1.7334999e-01
 -7.1979648e-01
 -2.0526199e+00
 -2.0039659e+00
 -1.0508047e+00
  4.1641441e-01
 -1.7980810e+00
  2.4452381e+00
 -1.0389097e+00
  2.3003666e+00
 -5.1865822e-01
 -1.0199101e+00
 -3.0403790e-01
  2.5080924e+00
 -2.4843130e+00
 -2.1085892e+00
  1.9777653e+00
 -6.2797254e-01
 -1.7398381e+00
  4.4498947e-03
 -1.7932132e+00
 -1.6720958e+00
 -1.0878319e+00
  2.5710714e+00
  1.4082270e+00
 -1.1254995e+00
  3.4807982e+00
  2.4460497e+00
 -2.0710351e+00
 -1.0989846e+00
  8.2631320e-01
 -3.4427685e-01
  1.6464702e+00
  2.1934378e+00
 -9.4898456e-01
 -1.5546639e-01
  2.4634717e+00
 -1.6079463e-01
  1.0440688e+00
  9.4891518e-01
  1.5972234e+00
 -4.1163853e-01
 -9.3801773e-01
 -1.1452552e+00
  4.2239957e+00
  1.1752025e+00
 -7.3007953e-01
  4.3758801e-01
 -2.0062745e+00
 -2.0394006e+00
 -1.6298925e+00
  3.9450300e-01
 -1.0725869e+00
 -1.6580448e+00
  1.8415003e+00
 -8.2446992e-01
  3.3150289e+00
 -7.3244190e-01
  1.6964351e+00
  1.7703222e+00
 -1.4403837e+00
  1.3384893e+00
  1.0655574e+00
 -1.2903236e+00
 -1.2029622e+00
  1.0288333e+00
  8.2625031e-01
 -2.2005597e-01
  3.9068398e-01
  4.8885566e-01
  1.1678004e+00
 -1.2296386e+00
 -1.0770156e-01
  4.6137214e-01
  9.1324560e-02
  1.4833385e-01
  1.8256139e+00
  1.0711737e+00
 -4.5565799e-02
 -9.4404547e-03
  3.3496118e+00
 -2.1469291e-02
 -8.6925292e-01
  3.8460296e-01
  4.9689335e-01
  7.6326764e-01
  1.0062698e+00
 -7.1970260e-01
  8.3929144e-02
 -2.3602409e+00
  2.0613489e+00
  1.0563853e+00
 -3.0536222e-01
 -3.2607541e+00
 -5.6120735e-01
 -1.9747728e+00
  2.0817287e+00
  1.7234195e+00
 -1.8438683e+00
  2.1470137e-02
 -8.3211368e-01
 -1.9646897e+00
  2.1989217e-01
  2.9860702e+00
 -4.5192465e-01
  1.6145959e-01
  5.9362013e-02
 -2.5165102e-01
 -3.0709055e-01
 -1.9377056e+00
 -1.1528654e+00
  1.3572471e+00
 -2.9204121e+00
  7.4828066e-02
 -2.5983112e+00
 -1.9079353e-01
  3.7613342e+00
 -1.9152316e+00
  1.2988443e+00
  1.2239887e+00
  6.6461390e-01
 -1.1119399e+00
  1.8046911e+00
 -1.3525083e+00
 -7.7493310e-01
 -3.3243158e-01
  2.4812894e-01
 -4.8358482e-01
 -1.5027509e+00
 -1.1235156e+00
  3.5933259e+00
  6.0834181e-01
  2.2286606e+00
  9.7257346e-02
 -1.4631116e-01
 -3.3599660e-01
 -4.9617943e-01
  1.9941152e+00
  2.9217649e+00
  3.2369331e-01
  1.4109704e+00
 -9.6606255e-01
 -6.5176225e-01
  5.1624906e-01
  1.2777455e+00
  6.9004601e-01
  6.3371050e-01
  2.2225666e+00
  3.1031179e-01
 -5.3583676e-01
 -2.5193052e+00
 -6.0048103e-01
 -1.7678524e+00
  5.8180492e-02
  1.1332910e+00
  3.9866716e-01
  2.8304055e-01
 -2.5528905e+00
  7.8028165e-02
 -1.7935028e+00
  1.1506277e+00
  2.6762491e-01
 -1.3757774e+00
  2.1441667e+00
  1.2039853e+00
  1.5269878e+00
 -1.8449724e+00
 -4.8100632e-01
  1.5542023e+00
  1.2847682e+00
  3.7075153e-01
  1.6502108e-01
 -9.3665314e-01
  8.2672650e-01
 -1.8903025e+00
  1.9620820e+00
 -1.4005101e-01
  7.5669849e-01
 -2.2296214e+00
 -2.5154736e+00
 -1.9931979e-02
 -2.2608989e-01
  2.3258094e-01
  5.2808964e-01
 -7.2665715e-01
 -1.6441290e+00
  1.7346028e+00
 -1.4801190e+00
 -4.8441157e-01
  5.9501868e-01
  4.0188879e-01
 -1.4151952e+00
 -4.5279238e-01
 -4.4146851e-01
  1.1725540e+00
 -1.3185951e+00
 -1.7880678e-01
 -6.4212877e-01
  1.5905703e+00
  3.0613475e+00
  7.6792759e-01
  2.9141612e+00
 -4.2989460e-01
 -8.0185187e-01
 -2.6406917e-01
  1.7677037e-01
 -1.8030239e+00
 -1.2931459e-02
  1.0851425e+00
  3.1702295e-01
 -6.6894376e-01
 -1.5191866e-01
 -7.5749397e-01
 -1.5008952e-01
  8.2518798e-01
  2.5481889e+00
  7.9042250e-01
 -8.3062935e-01
 -1.8292279e+00
 -5.4053899e-02
  5.0144118e-01
 -6.8979874e-02
  3.8415000e-01
 -3.1109982e+00
  7.4782366e-01
  1.7984428e+00
 -1.1013342e+00
  1.3533540e+00
 -1.8652771e+00
  1.4656059e+00
 -3.8133618e-01
 -5.5009836e-01
  1.2983283e+00
 -2.0680144e+00
 -2.3299954e+00
 -1.2297888e+00
 -7.1729980e-02
  1.1033593e+00
 -3.2859340e+00
 -3.3844559e+00
  5.9485066e-01
  1.3244771e+00
  9.4241798e-01
 -5.8245713e-01
  3.1830972e-01
  2.2204461e+00
 -9.0649134e-01
 -4.8951769e-01
 -4.0756063e+00
 -4.6117377e-01
 -1.8982276e+00
 -3.7062156e+00
 -6.0116792e-01
  7.0413268e-01
 -8.3597761e-01
  2.7662153e+00
 -3.4644153e-02
 -8.6321431e-01
  8.1544769e-01
 -7.2990346e-01
  1.0260130e+00
  3.8110504e-01
  1.7583488e+00
 -2.4651635e+00
  5.0854838e-01
 -1.3242526e+00
 -5.1202053e-01
 -2.3363032e+00
  2.2383316e-01
  2.1099897e-01
  2.9604262e-01
  1.7221273e-01
 -1.6199532e+00
  1.8330084e+00
  4.9675122e-02
  4.3247411e-01
 -3.6838276e+00
  5.2493107e-01
  2.9412791e-01
  6.2548977e-01
 -1.0836305e-01
 -3.7979922e-01
  7.7509528e-01
 -1.6440026e+00
 -3.4040898e-02
 -1.2107041e+00
  2.1177306e+00
  3.7601817e-01
  1.1676635e+00
  1.0514681e+00
  9.3964583e-01
 -9.1962445e-01
  1.1461356e+00
  1.3383956e+00
 -1.1932781e+00
  6.3462692e-01
 -1.9284295e+00
  1.7694846e+00
 -1.4940178e-01
 -1.2185172e+00
 -9.6764892e-01
  1.9283195e-01
  1.9319695e-01
 -1.6698608e-01
  4.9186371e-02
  2.4897661e+00
  1.0336564e+00
 -1.7711257e+00
  2.0088277e+00
  8.3915746e-01
 -1.5405977e+00
  9.5323819e-01
  1.6478751e+00
 -4.5107478e-01
 -1.1008435e+00
 -1.4962817e+00
  6.5969563e-01
 -1.1694998e+00
 -1.7460479e+00
  2.7224548e+00
  4.4032354e+00
  4.7086531e-01
 -6.7608774e-01
 -3.1004779e+00
 -4.4340017e-01
 -5.2768207e-01
  2.9971721e+00
  4.0598693e-01
  1.1065303e+00
  4.9440092e-01
 -1.1698810e+00
 -1.5795900e+00
  2.0432470e+00
 -6.3194609e-01
  1.7678152e+00
  3.8789502e-01
 -8.1561923e-02
 -1.3108586e+00
 -9.0667963e-01
 -1.5084457e-01
 -6.3522023e-01
  3.1148942e+00
 -1.1572446e+00
 -2.2910219e-01
 -2.1930938e+00
 -3.7474799e-01
  6.8233323e-01
 -1.3938713e+00
 -1.9351467e-02
  3.2332165e+00
  2.5904849e-01
  5.7587881e-02
 -5.4098386e-01
  1.4131113e+00
 -2.0322864e-01
 -1.6423093e+00
 -7.3462385e-01
  4.7591135e-01
  3.8448358e-01
 -7.9678267e-01
  9.6941388e-01
 -2.8801606e+00
  1.1880790e+00
  1.1758837e+00
  3.2009247e-01
 -5.4638445e-01
 -7.3080331e-01
 -1.0321357e+00
 -1.0018022e+00
  1.5333863e+00
  5.6747174e-01
  1.8170969e+00
  1.3657055e+00
 -1.4359707e+00
  3.5267454e-01
 -2.5589993e+00
  3.6358398e-01
 -1.1989166e+00
  2.6165237e+00
 -6.1832529e-01
  1.4119203e+00
  1.1341832e+00
 -1.7055956e+00
 -4.9384171e-01
  1.0311996e-01
  1.3959054e+00
  1.5856336e+00
  2.8234260e+00
 -3.6492139e-01
 -6.8159598e-01
 -1.0918469e+00
 -4.1118926e-01
 -1.7976075e+00
 -6.6120738e-01
  8.4529281e-01
 -6.7981070e-01
  1.4766544e+00
 -2.6030576e-01
 -1.4620670e+00
  5.6709573e-02
  5.8050400e-01
  9.1674703e-01
 -1.1888301e+00
  7.7474219e-01
  4.4824842e-02
 -6.8208247e-01
  5.0195730e-01
 -2.0030098e+00
 -9.2685747e-01
 -1.2696958e+00
  2.3273771e+00
  8.8215098e-02
  1.8893360e+00
  2.2911628e-01
  3.0605338e+00
 -9.0389812e-01
  5.7426435e-01
 -1.4638264e+00
  4.9780989e-01
 -1.6942505e+00
 -6.3963944e-01
  4.1077316e-01
  1.7996128e-01
  3.8405871e-01
 -2.8822470e+00
  4.4497916e-01
  4.0363020e-01
 -6.1982769e-01
  1.1620933e+00
  6.9741823e-02
  2.2788143e+00
 -9.8337047e-03
  4.7405526e-01
 -8.0451953e-01
 -6.6394287e-01
 -3.1901753e-01
 -1.2016300e+00
  2.4089582e-01
 -3.9289802e-01
  2.4270320e+00
 -1.8532789e-01
  5.4868656e-01
  1.3224845e+00
  9.3280798e-01
 -2.3448297e-01
  3.5659066e-01
  7.8194305e-02
 -8.7366742e-01
  6.4637375e-01
 -2.8061581e-01
  2.4341967e+00
  7.3929542e-01
 -1.0931090e+00
 -3.3332620e+00
 -1.4498816e+00
  2.8893766e+00
  1.5685871e-02
  1.3643855e+00
 -1.2505139e-01
  1.5310011e-02
 -1.0778319e+00
 -8.1728792e-01
  2.4254189e+00
  8.9794129e-01
 -1.4009044e+00
 -1.5058818e+00
  2.3482274e-01
  2.7073380e-01
  2.2029829e+00
  1.4890596e+00
  5.6779635e-01
 -4.6576312e-01
  2.1963079e+00
  1.9378200e+00
  2.1632752e+00
 -2.8681557e+00
 -1.1659999e+00
 -1.7567058e+00
  1.3699690e+00
 -2.3057804e+00
  6.3057005e-01
  1.1083817e-01
 -7.4013323e-01
 -1.5522704e+00
 -1.1606497e+00
  3.7789795e+00
  1.4972481e+00
 -2.3979725e-01
 -2.0378929e-02
  2.0640869e+00
 -2.1565344e+00
 -1.0242994e+00
 -2.1703310e+00
 -1.3539481e-01
 -3.7391858e+00
 -1.6469430e+00
 -1.8979038e-01
 -1.9486860e+00
  4.5279151e-01
 -5.4539490e-01
  4.5834485e-01
 -1.7029767e+00
  1.1052980e-01
  3.5545951e-01
 -9.8367369e-01
 -4.9786103e-01
 -1.4498086e-01
 -1.2488669e+00
 -1.8659075e+00
 -3.5451047e+00
  1.4277144e-01
  3.7808982e-01
  2.7132270e+00
 -4.9576327e-01
 -4.9650955e-01
 -1.8582222e+00
 -1.4651634e+00
  2.5385563e+00
  1.1823962e+00
 -1.8956308e-01
  4.9677473e-01
 -1.7749561e+00
 -3.7423915e-01
  1.8545251e-01
 -1.4414134e+00
  1.3514575e+00
 -1.9746848e+00
  9.4250828e-01
  1.1459742e+00
 -2.8683421e-01
 -2.1236935e-01
 -2.3566403e+00
 -2.4926691e+00
  1.0089515e+00
 -3.1743038e-01
 -4.8672706e-01
 -3.4491318e-01
  8.1488407e-01
 -1.0527892e+00
 -1.3579289e+00
 -8.0573678e-01
  4.3353248e-02
 -1.3048869e+00
  4.3976977e-01
  1.1277381e+00
  9.1237158e-01
 -7.3673177e-01
 -5.7149804e-01
 -5.8229592e-02
 -2.2738531e+00
 -2.5394199e+00
 -2.6993361e+00
 -3.2758064e+00
  9.1875672e-01
 -1.4234232e+00
  7.1533430e-01
  1.0897311e+00
 -2.1758265e+00
  1.0259565e+00
  2.2708960e+00
 -1.7916293e+00
  5.5236536e-01
 -1.8069236e+00
 -1.8517587e+00
 -1.7929420e+00
 -1.1412030e+00
 -9.2473203e-01
  4.0403772e-02
  2.1651390e+00
  6.7707151e-01
 -1.6867604e+00
 -1.2731410e+00
  3.9227548e-01
 -3.1025069e+00
  2.3475808e-01
  4.7393045e-01
 -1.0038668e+00
 -1.9270728e+00
 -1.1483164e+00
  5.0494477e-02
 -1.0870124e+00
 -6.0723412e-01
  2.1208575e-01
  1.1670440e+00
  6.6417515e-01
  5.6621569e-01
  1.9451917e+00
 -1.7307260e+00
 -1.3211335e+00
  2.2527622e-01
  2.2631173e+00
  8.5789782e-01
 -7.6647604e-01
 -2.3008592e-01
  3.5682565e-01
 -4.5232961e-01
  6.3121602e-02
  2.2153168e+00
 -1.7819425e+00
 -1.8623785e+00
  7.3482543e-01
 -9.6113586e-01
 -1.3199613e+00
 -1.8911554e+00
 -7.0656127e-01
  1.3357511e-01
  1.2847218e-02
  9.0434358e-02
 -8.2167321e-01
 -5.1123279e-01
 -3.9007431e-01
 -2.9281396e-01
 -3.3114827e-01
 -9.1634339e-01
 -1.0583836e+00
  1.8211994e+00
 -6.5819967e-01
 -8.0515496e-02
  9.9978703e-01
 -1.5974013e+00
 -3.1744778e-02
 -7.9697087e-02
  2.4112477e+00
 -4.8041005e-02
 -5.9400690e-01
 -2.1077399e+00
  1.2124485e+00
  5.9215978e-02
  1.6335330e+00
  1.9377168e-01
  5.6186926e-01
  2.7683729e-01
 -9.8086685e-01
  6.3760149e-01
 -1.1660506e+00
  1.1691482e+00
  1.9304783e+00
 -8.5329002e-01
 -2.1282625e-01
 -4.3446472e-01
 -1.2752405e+00
  7.3359931e-01
  1.3660005e+00
  3.7593353e+00
  5.3019893e-01
  8.6281097e-01
  4.0328598e-01
 -2.2839162e+00
  4.5426530e-01
 -2.2765715e+00
 -3.4366086e-01
  6.4671648e-01
  2.4720054e+00
 -2.2298431e+00
 -4.7536683e-01
  1.7998720e+00
 -2.1862523e-01
 -3.0679351e-01
 -1.8942003e+00
  2.6687038e-01
  9.0740377e-01
 -5.6002027e-01
  3.2847013e+00
 -7.7826220e-01
  1.1734341e-01
  3.5074556e-01
 -6.7300338e-01
 -1.1152147e+00
 -3.8204827e+00
 -1.3608940e+00
 -6.1657929e-01
 -1.8359374e+00
 -1.8356526e+00
 -2.8677443e-01
  4.2244606e-02
 -2.5285087e+00
 -1.4846715e+00
  1.2314402e+00
 -4.2025361e+00
 -1.1967173e+00
 -3.6052164e-01
  1.1634378e+00
 -1.5923755e-01
  1.3373598e+00
  3.4380677e+00
 -1.7998277e+00
 -8.2430190e-01
 -5.1220678e-02
 -6.2140363e-01
 -2.0903690e+00
  1.1784171e+00
  9.0292233e-01
 -1.6330441e+00
  6.8310207e-01
 -8.8589859e-01
 -1.1681740e+00
  8.7581314e-02
  8.0718166e-01
 -1.2798716e+00
 -5.1282161e-01
  5.8276480e-01
  7.0773900e-01
  1.3472611e+00
  1.2508502e+00
  1.6286757e+00
  1.4668962e+00
  5.1251549e-01
 -2.4819033e+00
 -2.8650928e-01
  1.2564033e+00
  1.2826000e+00
  8.6697012e-01
 -3.8437109e-02
  7.3924232e-01
 -4.5962384e-01
  3.1580126e+00
  1.8848321e+00
 -1.4662610e+00
 -1.0814738e-01
 -3.4818773e+00
 -1.9006369e-01
  1.5064808e+00
 -4.4184667e-01
 -1.4343627e-01
 -6.7061764e-01
 -7.1711153e-01
 -2.4517796e+00
 -2.9085045e+00
 -1.2437434e+00
 -4.0339169e-01
  1.0131232e+00
 -4.6369567e+00
  8.4190416e-01
  2.9279208e+00
  3.7718432e+00
  2.3908007e+00
  1.7848799e-02
 -8.7899739e-01
 -1.7514414e+00
 -4.4828365e-03
 -3.8627404e-01
  6.2580049e-01
 -2.3595400e+00
  1.7462745e-01
 -2.7623522e+00
  1.2481223e+00
  1.6104110e+00
  1.5876454e-01
 -3.6031514e-01
 -6.3303435e-01
  1.1674063e+00
 -1.3156035e+00
 -2.8066413e+00
  7.9895842e-01
 -9.0714246e-01
  3.1272302e+00
  5.1618170e-02
 -2.5661139e+00
 -1.3244309e+00
 -1.0410060e+00
 -1.7726309e+00
  2.3866148e-01
  1.7208928e+00
 -1.5999327e+00
 -1.2286010e+00
 -5.7302393e-02
  1.2905633e+00
 -5.1880527e-01
 -1.3104529e+00
  1.2426865e+00
 -3.1087527e-01
 -1.2124057e+00
  4.2601201e-01
 -2.5978833e-01
  2.5678496e+00
 -2.1764729e+00
  2.1143866e+00
  2.7931585e+00
 -2.1323941e+00
  1.3708845e-01
 -8.0276147e-02
 -1.5584853e+00
  1.4557675e+00
  1.2872189e+00
 -1.8433603e+00
 -2.4995692e+00
 -1.6241097e+00
 -2.4851198e-01
  9.0586555e-01
 -4.6404969e-02
 -1.8258624e+00
 -2.1446476e+00
  5.4229432e-01
  9.3981165e-01
 -1.2101977e+00
  1.9722322e+00
 -1.7184455e+00
  6.2668927e-02
  1.6221683e-01
  1.0533702e+00
  2.3897581e-01
  2.6358140e-01
 -2.9633215e-01
 -1.4973097e+00
 -3.1451505e-01
 -6.8016571e-01
 -2.4481165e-01
  5.2554345e-01
  1.5347553e+00
  2.3819604e+00
 -2.9521462e-01
  4.7735867e-01
 -1.8800398e+00
  9.1694154e-02
 -1.5989211e+00
  8.7212920e-01
 -6.9048423e-01
  1.2872362e+00
 -6.9064236e-01
  1.0196604e+00
 -4.8961902e-01
  1.7176545e+00
  1.9530175e+00
  6.0930479e-02
  4.0991139e-01
 -1.2695007e+00
  1.0627925e+00
  5.8843768e-01
 -5.6700683e-01
 -1.7819705e+00
 -6.2401903e-01
  1.1390613e+00
  1.3207889e+00
 -5.4724753e-01
 -3.0526948e+00
 -8.0732924e-01
 -2.9203079e+00
 -1.1889030e+00
 -1.7607508e+00
  1.1300287e-01
  7.9115048e-02
 -2.9809492e+00
  3.7283164e-01
 -4.2490199e-02
 -1.8699056e-02
  1.9184135e+00
  1.5107243e-01
  4.6505697e-02
  8.1065005e-01
  5.2575573e-02
 -2.0602721e-01
  1.0727845e+00
 -7.6943642e-01
  5.5117983e-01
 -3.1194603e-01
  7.4231285e-01
  4.1029941e-02
  1.3475933e+00
  1.1259451e+00
  2.2204881e+00
  3.6516461e-01
 -1.8082427e+00
 -7.4818659e-01
  1.6035357e+00
 -9.5300633e-01
  2.2561390e+00
 -1.3520402e+00
 -2.0784101e+00
  3.8006037e-01
  1.4637360e-01
 -3.3897049e+00
 -1.0701648e+00
 -2.2241697e+00
  8.2034683e-01
  1.4841135e+00
 -2.5568187e+00
  1.0429626e+00
 -9.5290363e-01
 -7.0016164e-01
  3.8030940e-01
  4.2638260e-01
 -8.2308251e-01
  2.3583608e+00
 -5.4586339e-01
 -4.8145625e-01
 -4.6356663e-01
 -2.0062392e+00
 -1.5947686e-01
  2.1938409e-01
 -5.1492393e-01
 -1.0277128e+00
  9.9953026e-02
 -2.3025373e-01
  8.8830632e-01
 -7.4201077e-01
  4.4302008e-01
 -4.8610020e-01
 -5.8178294e-01
 -5.0931954e-01
  1.0951526e+00
  2.3902375e-01
  3.2537061e-01
 -3.6795220e-01
  6.3811712e-02
 -1.0529261e+00
  3.7308699e-01
  1.5431933e+00
 -8.2703435e-01
  1.7708687e+00
 -7.6270586e-01
  7.3110747e-01
  7.0208120e-01
 -2.3791999e-02
 -1.0349442e+00
  1.1648297e+00
  2.6360009e+00
  1.7154456e+00
  5.5445296e-01
 -7.2261763e-01
  1.7632309e+00
  9.3424898e-01
  2.9141400e+00
 -8.0130434e-01
 -1.3923372e+00
  1.1914862e-01
 -6.3758081e-01
 -1.8433185e+00
 -8.7352358e-02
  8.5240114e-01
 -1.8616347e+00
 -2.7918026e-01
  8.2251728e-01
 -1.3351783e+00
  6.6432315e-01
  2.4379447e+00
  6.4065576e-01
 -2.7897689e+00
 -2.4072266e+00
 -2.0972724e+00
  2.7182379e+00
  1.6184474e+00
  7.6673114e-01
  1.0737593e+00
 -7.7472126e-01
  9.0081578e-01
 -1.2710063e+00
  3.0512247e+00
 -7.7929622e-01
 -7.0909709e-01
  9.2631117e-02
  1.4601973e+00
 -5.7602841e-01
 -9.7379136e-01
 -2.7935848e-01
  1.3699392e+00
 -7.6357055e-01
 -1.6195042e-01
  2.1917322e+00
 -8.8759851e-01
  4.4932681e-01
  1.5945597e-01
 -7.0097381e-01
  3.9746919e-01
  6.7359179e-01
 -1.5130669e+00
  2.8010812e+00
 -1.1415660e+00
 -1.4318486e-01
  1.7247221e+00
  1.8503045e+00
 -2.6118302e-01
 -2.6457353e+00
 -1.4084440e-01
  1.6382616e-02
  1.2394801e-01
  1.7276640e+00
  6.5845877e-01
 -2.0269866e+00
  7.1447939e-01
 -1.8137603e+00
 -4.3362059e-02
 -1.8415623e+00
  2.3977371e-01
  1.4981101e+00
 -6.5280688e-01
  7.8509951e-01
  9.7839886e-01
 -8.4061094e-02
  8.2213563e-01
  1.7324437e-01
  1.0187393e+00
 -9.5715320e-01
 -1.6748495e-01
 -1.4880544e+00
 -7.9334205e-01
  5.6423821e-02
  7.7072656e-01
  6.5783691e-01
  9.9183090e-02
 -6.4173496e-01
  2.8259283e-01
 -3.8151294e-02
 -4.7447348e-01
  1.2444695e+00
  5.9157139e-01
  1.3717474e+00
 -5.3426772e-01
 -1.0834972e-01
 -2.7820638e-01
 -7.5594074e-01
 -4.5790592e-01
 -5.9232317e-02
 -6.6104609e-01
  9.6480727e-01
 -1.0684379e+00
  2.5635080e+00
  8.1500781e-01
 -8.4529781e-01
  1.7951386e+00
  2.8317852e-03
  3.1822124e-01
  8.9785337e-01
  1.6499254e+00
  4.4005600e-01
 -8.4649378e-01
 -2.4869459e+00
  1.1741369e+00
  4.1197345e-01
 -9.3249333e-01
  3.1940868e-01
 -5.2154064e-01
 -9.7699481e-01
  2.9272165e-02
  2.3828325e+00
  8.7273633e-01
  1.0352470e+00
  1.5396563e+00
 -2.4019568e-01
 -1.5622175e+00
  2.9619984e-02
 -6.3852906e-01
  2.9478821e-01
  7.5990093e-01
 -7.4770796e-01
  2.2703035e-01
  5.4487139e-01
  2.1052811e+00
 -9.4927984e-01
 -7.3397565e-01
 -1.2504436e-01
 -1.1055762e+00
  1.8268634e+00
  1.2554729e+00
 -4.4318160e-01
  1.5858111e+00
  5.4447943e-01
  1.6389127e+00
 -1.0673651e+00
  1.4483943e+00
 -1.7824644e+00
  1.9762204e+00
 -1.8412118e+00
 -2.0334306e+00
 -1.7374669e+00
  8.4302150e-02
 -1.2419481e+00
 -9.0114379e-01
  1.9973770e-01
  1.3603853e+00
  8.1766093e-01
 -1.2612164e+00
 -1.1183591e-01
 -3.8987106e-01
 -1.6241775e+00
 -1.2657239e+00
  4.4082144e-01
 -1.7239292e-01
  1.2499193e-01
  4.2715082e-01
 -3.6915064e-01
 -2.3488869e-01
  2.4835871e-01
 -2.8578660e+00
  7.0877320e-01
  3.0273864e-01
 -1.6110450e-01
  1.7117639e+00
 -2.9405570e+00
  1.6604923e+00
 -3.7906143e-01
 -1.9700328e+00
  5.1856726e-01
 -1.5468836e+00
  3.1238439e+00
  6.4858782e-01
  2.7804514e-02
 -1.5195036e+00
 -1.8880432e+00
  4.2621928e-01
 -1.4683893e-01
 -7.2500950e-01
  2.3563895e+00
 -7.2789997e-02
 -1.3976859e-01
  1.0254773e+00
  5.1530832e-01
  9.1519558e-01
 -1.9879572e-01
  1.8615340e-01
 -1.9878156e-02
  7.8326648e-01
  5.7892412e-01
 -5.0639188e-01
 -2.2528334e-01
 -5.4099876e-01
 -7.0497227e-01
  1.5612337e-01
  5.9645855e-01
 -1.5011817e-01
 -8.3139753e-01
  3.2350874e-01
  5.5671114e-01
  1.6194494e+00
  7.9780096e-01
 -8.4921569e-01
  9.6752656e-01
 -1.7713704e+00
  1.0448610e+00
 -8.7840268e-03
  9.0792781e-01
  2.4222666e-01
  1.5320172e+00
  1.3072971e+00
 -1.4755743e+00
  7.8204548e-01
  4.4143856e-01
 -1.3237141e+00
 -1.1362824e+00
 -1.7976691e-01
 -4.9226284e-01
  2.0770762e+00
  1.8610863e-01
 -1.0241424e+00
 -2.7791187e-02
  1.5896394e+00
  2.6735744e-02
  5.1865280e-01
 -9.4002265e-01
 -3.7949872e+00
  1.8110702e+00
 -9.5731586e-01
  1.8336292e-01
 -1.1993612e+00
 -1.5686469e-01
 -3.4355399e-01
 -1.1610373e+00
 -1.1687417e+00
 -4.5497379e-01
 -3.5962361e-01
 -6.9489819e-01
  1.5871105e+00
 -7.8528112e-01
  1.6942772e+00
 -7.8616613e-01
 -2.1744621e+00
  4.5857563e+00
  1.6214728e+00
 -5.9135997e-01
  1.3877449e+00
 -3.2613987e-01
  1.8585011e-01
 -4.9893424e-01
  3.4230727e-01
 -5.3009987e-01
  2.3195071e+00
  1.0992967e-01
 -8.7609690e-01
  1.1334399e+00
 -1.2742157e+00
 -4.6904203e-01
  1.9168403e-02
  7.6318794e-01
  2.6871178e+00
  1.8727611e-01
  4.2578372e-01
 -1.0806975e+00
 -1.4881728e+00
  3.0983928e-01
  4.4168672e-01
  2.5372210e-01
  1.4535117e-01
  1.5109050e+00
 -2.0849051e+00
 -8.8005078e-01
  1.2729423e+00
  6.3766479e-01
  2.9679939e-01
 -5.1731104e-01
  5.5300123e-03
 -5.7944427e-03
  8.7974411e-01
  2.4901323e+00
  1.9937135e-02
  4.1050199e-02
 -7.4346340e-01
 -6.9765246e-01
  5.5999887e-01
  1.9137682e-01
 -2.4296884e-01
  9.6737735e-02
  3.9427057e-01
  5.5413908e-01
  4.7868276e-01
 -7.5581038e-01
 -7.0399684e-01
  6.7013288e-01
  5.7831359e-01
  3.0104733e-01
 -8.9376736e-01
 -7.7039286e-02
  5.6428909e-01
  9.5643210e-01
 -1.7295375e-02
 -3.9557230e-01
  9.4331247e-01
 -2.2484112e+00
  4.6030295e-01
 -2.4231522e+00
 -1.2395625e+00
  7.6154852e-01
 -7.3068464e-01
  9.6297961e-01
  3.0755265e+00
 -3.3321208e-01
  2.2884803e+00
  7.2395569e-01
  3.3532372e-01
  5.1090312e-01
 -4.0373015e-01
  1.3381095e+00
 -1.3650414e+00
  1.3219115e+00
  1.9375660e-01
  7.2659731e-01
 -1.6253552e-01
  5.8163989e-01
 -7.7446014e-01
 -6.1201621e-02
 -6.9074398e-01
 -7.9126120e-01
 -1.5575391e+00
 -2.7402964e+00
  1.0720181e-01
  1.9071195e+00
  1.8890802e+00
 -3.3090535e-01
  7.4773157e-01
  4.0694723e-01
 -1.6747867e+00
 -4.1930464e-01
  9.3104774e-01
  1.0507803e-01
 -1.1492465e+00
  1.2802219e+00
 -3.7601676e-02
 -1.0667406e+00
 -1.4218180e+00
  2.1768163e-01
 -5.4368120e-01
  1.0441128e+00
  2.5586572e-01
 -1.6420863e+00
  2.0116948e-02
  2.6186413e-01
  4.2338881e-01
  1.2810167e+00
 -3.1621757e-01
  6.5039688e-01
  1.1617369e-01
  1.6633105e-01
 -2.0364764e+00
 -4.5138437e-01
 -6.6638416e-01
  7.3443562e-01
  1.2076315e+00
  3.7970362e+00
 -4.1648179e-01
 -1.2107680e+00
  1.7773508e+00
  1.0061882e-02
  7.8208560e-01
 -3.6833209e-01
  1.1588227e+00
 -8.3319420e-01
 -1.3214037e-01
  3.2137609e-01
 -6.1251956e-01
  1.3113030e+00
 -3.4301761e-01
 -6.3214791e-01
 -1.5153915e-01
  1.1481665e+00
  1.5434594e+00
 -4.3888274e-01
 -1.8696280e+00
 -6.2854362e-01
  7.6228029e-01
  8.6333042e-01
 -1.6769063e+00
 -1.2211850e+00
 -8.1732690e-01
  4.5760354e-01
  1.0035105e+00
  1.6761547e+00
  7.5825974e-02
  1.0753171e-01
 -6.3001925e-01
  1.8021179e+00
 -2.5259585e+00
  2.6065819e+00
  3.0161605e+00
  1.8411608e-01
  1.8919213e+00
  2.2454541e+00
 -2.1747239e+00
  1.5688235e+00
  7.9818273e-01
 -1.7970979e-01
  7.4828690e-01
 -1.2707585e+00
  1.6649097e+00
  7.3584950e-01
  1.7283164e+00
  1.0306255e+00
  7.2934908e-01
 -7.3172009e-01
  2.2163093e+00
  5.1743281e-03
  2.0297198e+00
  2.7334673e+00
  4.6602198e-01
  1.5895655e+00
 -4.4272485e-01
  8.3806354e-01
 -3.8842100e-01
  7.9434299e-01
  1.4588767e+00
 -5.2308023e-01
 -3.6871889e-01
 -4.1143004e-02
 -6.4797658e-01
  8.1390208e-01
  2.4050331e-01
 -4.9634357e-03
 -1.1348820e+00
  9.6211791e-01
  1.4176257e+00
  5.1627856e-01
  1.1937621e+00
  5.2976805e-01
  1.2128660e-01
  1.2440667e+00
  3.4792573e+00
 -3.1405798e-01
  1.1643561e+00
  8.0467939e-02
  9.8309219e-01
 -1.6539659e-01
  1.0996114e+00
  9.1881625e-02
 -1.0517845e+00
  2.6010579e-01
  1.1370325e+00
 -3.2291257e-01
 -9.0356743e-01
 -3.6532968e-01
  8.1503563e-02
 -1.6063614e+00
 -1.6724893e+00
  2.5991375e+00
  1.3732180e-01
  1.6878024e+00
 -2.5883472e-01
 -6.0579103e-01
 -2.9826000e-01
  2.4549298e+00
  1.0011038e+00
  1.3443440e-01
  9.4115362e-02
 -6.2704211e-01
 -5.4656678e-01
 -1.4914347e+00
 -3.0436642e+00
 -1.4565870e+00
  1.4438503e+00
  1.4392912e+00
  6.4073983e-03
 -3.9952108e-01
 -2.5935638e-01
  5.0767791e-01
  9.1671491e-01
 -2.5798161e+00
 -1.4877630e+00
 -1.8514516e+00
 -1.5800054e+00
 -3.6126265e-01
  3.2593527e-01
 -2.5105915e+00
 -4.2725056e-01
  1.7743579e+00
 -5.3283358e-01
 -7.2847325e-01
 -1.5469688e+00
 -1.3008671e+00
  1.5052416e+00
 -1.3265538e+00
 -3.7967485e-01
  1.2404819e+00
  1.6238081e+00
 -9.1097045e-01
  1.0229669e-01
  2.0591960e+00
  1.6253045e+00
  1.3382714e+00
 -9.1079265e-01
  1.3106421e+00
  2.1419792e+00
  4.3637213e-01
 -7.1928203e-01
  3.0803380e+00
 -3.6090195e-01
 -9.0937948e-01
  1.9317927e+00
  7.1921742e-01
 -9.5121926e-01
 -3.6834174e-01
  1.6784463e+00
  1.5840789e+00
  1.9139717e+00
 -2.0001838e+00
 -1.1681791e-01
 -8.5261121e-02
 -1.9855542e+00
 -6.9013238e-01
  1.4803481e-01
  1.2563415e+00
 -1.8252788e-01
 -5.0854999e-01
  1.0877695e+00
 -3.1080923e+00
 -1.5655955e+00
  5.8666849e-01
  9.3295014e-01
 -3.8897854e-01
  4.0731308e-01
 -2.1396205e+00
  2.5998107e-01
  3.4189054e-01
  5.5399829e-01
  1.6790146e+00
 -7.6704347e-01
  8.2636869e-01
  4.3725708e-01
 -1.7118124e+00
 -1.6365515e+00
  9.4857514e-01
 -8.3761543e-01
  1.2596083e+00
 -1.5484855e-01
  4.4473863e-01
 -1.1071360e-01
 -3.8853563e-02
 -1.4696221e-01
 -7.5478154e-01
 -5.6422645e-01
 -3.1491390e-01
  1.2124019e+00
 -5.6052035e-01
 -1.4849740e+00
 -9.4109821e-01
  7.4208534e-01
  2.0122454e+00
 -1.0252341e+00
  8.6652316e-02
 -1.0247279e+00
 -2.3404659e-01
  2.3993044e+00
 -1.9373846e+00
 -4.6125793e-01
 -3.6783659e-01
 -2.7228761e+00
 -4.7912806e-01
  6.9847172e-01
  1.6957802e+00
  5.7273352e-01
 -5.8872354e-01
  1.0505180e+00
 -8.4389722e-01
  9.2286605e-01
 -2.9367477e-01
  9.1704583e-01
 -2.5335237e-01
 -1.1753738e-01
 -2.1931465e+00
 -9.4395638e-02
  3.6439157e+00
  1.2027047e+00
 -2.5917220e+00
 -7.7314712e-02
 -1.0679027e+00
  2.9171343e+00
  1.3483883e+00
  2.7493842e+00
 -9.4494760e-01
  2.4355896e+00
 -2.5002328e-03
 -6.0671455e-01
  2.0399673e-01
 -2.8257942e-01
 -7.1831441e-01
 -1.2351034e-01
 -5.8850564e-02
 -5.9248084e-01
  1.0065557e+00
  5.9578649e-04
  1.6170311e+00
  4.7222948e-01
  1.0767453e+00
  1.2396126e+00
 -7.7595282e-01
 -9.2341059e-01
 -3.6850086e-01
  5.1135115e-02
 -2.8812602e+00
  1.5890087e+00
  1.7397501e+00
 -1.4602341e-01
 -6.7585772e-01
  9.5990479e-02
  5.4464418e-02
  2.9738114e+00
  1.2956131e-01
 -4.8930773e-01
 -9.5693626e-02
 -4.6536263e-02
  6.3896753e-02
 -8.8931721e-01
 -1.8292247e+00
 -1.2291958e+00
  9.4405943e-01
  2.2600048e+00
  2.2317635e-01
 -8.8703918e-01
 -2.1520199e-01
  9.0947396e-01
  7.3161364e-01
  1.7646190e+00
  3.1177980e-01
 -7.4804342e-01
 -2.6531503e-01
  4.6916118e-01
  5.0277119e+00
  1.0849986e-01
 -4.3108210e-01
 -7.2134501e-01
 -1.9513359e+00
 -5.0244421e-01
 -3.4446184e-02
  1.8168927e+00
 -1.5949941e+00
 -2.3599544e+00
 -1.6900361e+00
 -7.5165713e-01
  5.9372276e-01
 -1.8597056e+00
  2.1560599e-01
  1.3837047e+00
  6.0098666e-01
 -8.0033976e-01
 -7.3049140e-01
  2.6629672e+00
 -3.7844849e-01
 -1.8641829e+00
  2.4879503e+00
  1.3751545e+00
 -1.5930255e-01
 -5.4815218e-02
  3.8105631e-01
 -1.3603668e+00
  1.5874708e+00
 -1.8030677e+00
  5.4077142e-01
  1.2023093e+00
 -3.2675830e-01
 -7.3172915e-01
  5.4406899e-01
  1.9533376e-01
  5.4781240e-01
 -3.8102660e+00
 -2.9389546e+00
 -1.1404938e-01
 -1.8836665e+00
 -2.6760399e-01
 -9.6968132e-01
 -3.1794655e-01
 -3.9319575e-01
 -7.7433783e-01
 -3.6244282e-01
  1.0414593e+00
  7.7213657e-01
 -8.3923364e-01
 -1.7408718e+00
  6.6752629e-03
  6.3205409e-01
  3.8122615e-01
  4.2088142e-01
 -3.8398759e+00
  1.6785024e+00
 -2.1018605e+00
  5.2963549e-01
  2.1535940e+00
 -1.3275617e-01
  9.1397023e-01
 -7.4572611e-01
  1.1061453e+00
 -7.9329062e-01
 -1.1200802e+00
  3.2729033e-02
 -1.9784099e+00
  1.4122986e+00
 -5.3367817e-01
  1.4707136e+00
  1.1979642e-01
  4.5230260e-01
 -2.0121393e+00
  1.1279030e+00
  1.0558820e+00
  7.7830184e-01
  6.7383063e-01
  2.9225010e-01
 -1.2984565e+00
  3.7646160e-01
 -1.0172768e+00
 -1.6157143e-01
 -1.0236075e+00
 -8.5526690e-02
 -6.4895165e-01
  1.1628342e+00
  5.7483947e-01
  1.1601150e+00
 -2.9651940e+00
 -2.2747698e+00
  4.5341989e-01
 -1.3340765e+00
  5.0228500e-01
 -4.8552471e-01
 -2.5264946e-01
 -1.1798947e+00
  6.3778031e-01
 -8.5757108e-04
  1.4783350e+00
  8.8514674e-01
  1.9143158e+00
 -9.0459228e-01
 -1.5571342e+00
 -3.2309375e+00
  4.2939505e-01
 -1.0173653e+00
  1.3173275e+00
 -3.0974898e+00
 -8.5481995e-01
 -2.2044532e+00
  1.1668141e+00
  7.7423042e-01
 -3.2724032e-01
  5.4895914e-01
 -7.8643674e-01
 -2.5466011e+00
 -8.6419366e-02
  1.3614342e-01
  6.3541174e-01
  5.6382829e-01
  1.1195409e+00
 -1.0386214e+00
  7.4563965e-02
 -7.5484085e-01
  4.2213288e-01
 -3.5164049e-01
  1.9505039e+00
  8.4063733e-01
  4.6511361e-01
 -9.0108997e-01
 -1.8969468e+00
 -2.2064146e-01
 -7.5809884e-01
 -1.6632035e+00
  8.9277434e-01
  1.1408778e-01
 -1.2014977e+00
  2.8738675e+00
  1.2895908e+00
 -9.4429535e-01
 -1.8465052e+00
  2.4892008e-01
  9.9147373e-01
  1.1947404e+00
 -1.1225766e+00
  1.2630067e+00
  5.1322842e-01
 -2.0865667e-01
 -1.5101010e-01
  5.3566214e-02
  2.8995809e-01
 -4.4909069e-01
  2.1122208e-02
 -2.7756145e+00
  1.0856849e+00
 -1.1275257e+00
 -5.1996869e-01
  7.1543209e-02
 -1.3130817e+00
  1.2964928e-01
  1.7934600e+00
 -1.5414083e+00
  2.1810589e+00
  2.4763511e-01
  1.7475921e+00
  2.8483009e+00
 -6.4610142e-01
 -6.1942941e-01
 -9.2412513e-01
 -1.5016258e+00
  4.7498757e-01
 -1.1740400e-01
 -5.0395799e-01
  1.2689484e+00
  1.6577451e+00
  4.2822841e-01
  2.6064892e+00
  7.9679626e-01
 -7.1954143e-01
  1.1170592e+00
  1.9407575e-01
 -1.8409967e+00
 -4.0189379e-01
  5.0164126e-02
  1.1671858e+00
  7.4599171e-01
  6.5520890e-03
 -3.3594891e-01
 -4.9872744e-01
 -5.4973638e-01
  3.1724033e-01
  8.6209309e-01
  6.4831597e-01
  1.0128194e+00
  1.4335555e+00
 -1.7560889e+00
 -1.3697461e+00
  8.4322214e-01
  8.4893304e-01
 -4.5585978e-01
 -2.1978015e-01
  8.5011888e-01
  1.1791315e+00
  1.0769718e-01
 -3.2324120e-01
 -1.9629742e-01
  3.1879416e-01
  9.0854235e-02
 -3.8212459e-04
 -1.1109760e-01
 -6.5130186e-01
 -5.1276144e-02
 -2.8933752e-01
  4.0992093e-03
 -3.5231762e-02
 -4.2149317e-01
 -4.0450428e-02
  4.3746275e-01
 -9.3810081e-01
  5.1306975e-01
 -9.0329751e-02
  8.5810745e-01
  5.3966308e-01
  4.8541197e-01
 -3.6810029e-01
  8.3027714e-01
 -3.8812622e-02
 -4.1608199e-02
  4.0866602e-02
 -2.3807926e-01
  3.8722861e-01
 -8.1968002e-02
 -7.4819848e-03
  5.0574036e+00
 -1.6044340e+00
 -5.6103271e-01
 -2.0581722e+00
 -8.1895614e-01
  8.1682402e-01
 -1.6542633e+00
  7.8841925e-02
 -7.1812141e-01
 -2.1365218e+00
  1.8583871e+00
 -6.8466264e-01
  1.3531111e+00
 -4.3406266e-01
  1.3539624e+00
  2.8187208e+00
 -1.1104475e+00
  6.3934928e-01
  9.9384767e-01
 -1.2873635e+00
  1.7217057e+00
 -1.0427653e+00
  2.0061643e+00
  7.9415363e-01
  1.1017014e+00
  1.2937039e+00
  3.2793896e+00
 -7.8847671e-01
 -4.4920303e-02
 -6.6095042e-01
 -3.1976748e-01
  1.3581777e+00
 -8.9660400e-01
  4.3357241e-01
  8.2832927e-01
 -2.0123961e+00
  7.1905687e-02
  9.1753781e-01
 -1.0372347e+00
  9.0676671e-01
 -1.0123185e+00
  5.3843286e-02
  1.0480245e+00
  2.0369799e+00
  2.3422892e+00
  8.5813707e-01
 -1.8812242e+00
  2.9198617e-01
  2.7701609e+00
  2.6542342e-01
  1.8368226e+00
 -2.2095356e+00
 -2.1496890e+00
  1.5725049e+00
 -1.9116803e+00
 -5.6826192e-01
  5.2311110e-01
  5.0068859e-02
  6.6506135e-01
 -1.7175541e+00
 -5.8951247e-01
  5.2363619e-02
  2.6578176e+00
 -8.8614917e-01
  6.0214633e-01
  1.2218347e+00
 -2.1843953e+00
 -7.9209137e-01
 -2.1582043e+00
  7.0353776e-01
 -2.1437982e-01
  2.2714255e+00
  6.5396965e-01
  2.7734903e-01
 -1.7802781e+00
 -1.2801970e+00
 -2.1294916e+00
  4.6681756e-01
 -8.4475613e-01
 -1.3057437e+00
 -1.2466364e+00
 -1.2711951e-01
  1.2496715e+00
  1.1280760e+00
 -1.9009615e+00
 -1.2611670e+00
 -1.7549279e+00
  9.6253537e-02
 -1.2953594e-01
 -1.0413868e+00
  1.4352607e+00
  1.1173209e-01
 -1.3171700e+00
  2.8137333e+00
  2.9633448e-01
 -6.4318281e-01
 -1.4460443e+00
 -3.2580522e-01
 -1.1275187e+00
 -9.7074056e-01
  7.3713726e-01
  8.4683813e-02
  1.0191630e+00
 -1.9758436e-01
  1.7141769e+00
 -3.4203207e+00
 -6.2713951e-02
 -8.6385483e-01
 -3.5033205e-01
 -3.6021447e-01
  6.4634454e-01
  5.7032645e-01
 -6.5614879e-01
 -3.4363931e-01
 -1.2235993e+00
  2.8126764e-01
  6.8738812e-01
 -1.7607090e+00
 -1.6129099e+00
 -1.9021417e+00
  4.7286272e-01
  1.8314387e+00
 -1.4012295e+00
 -8.4871069e-02
 -1.5166341e+00
 -1.0891736e+00
  1.4902154e+00
  1.8193167e+00
  1.4523138e+00
 -1.9964588e+00
  2.1973584e+00
  2.2212029e+00
 -1.3520373e+00
 -2.6593450e-01
 -4.8610297e-01
  4.0568885e-01
  8.0049410e-02
  9.3023553e-03
 -1.5111662e+00
 -1.0211396e+00
  3.7020112e-03
  2.5012810e+00
 -2.5589123e+00
  1.2925144e+00
  9.1970131e-02
 -3.8305777e-01
  1.3514327e+00
  1.7193334e+00
 -7.0366669e-01
 -1.2254080e+00
 -3.2279766e+00
  1.9364335e-01
 -1.8858519e-01
  5.1162040e-01
  1.3410323e+00
  2.6952872e+00
 -1.0778209e+00
  1.2612807e+00
 -1.3302270e+00
 -2.7790400e-01
  9.2893481e-01
  2.2910237e+00
 -7.2302508e-01
  1.2612069e+00
  1.1345897e+00
  1.0726019e+00
  1.5411533e-01
  9.7051507e-01
  3.3591297e-01
  3.5430485e-01
 -8.1708574e-01
  1.5220095e+00
  5.3712126e-02
 -3.4326382e-02
 -1.9319320e+00
 -2.5033994e+00
  3.0777524e+00
  6.9520378e-01
  5.4009253e-01
  1.3637544e+00
  3.5218041e-02
 -1.2677358e+00
  1.2213445e+00
 -1.0798211e+00
 -2.0944093e-01
 -1.1901498e+00
 -3.4871382e-01
 -1.6240217e-01
 -3.4916729e-01
  8.6006528e-01
 -8.8430005e-01
 -1.6102870e+00
  1.7320935e+00
  3.0788028e+00
 -6.6698396e-01
 -1.7560500e-01
 -1.6843847e+00
  1.6155398e+00
  6.3844836e-01
  2.6904216e-01
  1.1877783e-01
  2.8920798e+00
  1.5076533e-01
  3.3213460e-01
  1.6631509e+00
 -5.8183831e-01
 -4.6212310e-01
 -2.9446319e-01
  8.9170367e-01
 -2.5617568e+00
 -3.2429837e-02
 -1.0774428e+00
  1.2050676e+00
 -3.5465708e-01
 -8.0941051e-01
  2.6030788e+00
  6.8700814e-01
 -5.0810671e-01
 -1.7623278e+00
 -1.4407262e+00
  1.3129041e+00
 -1.6687852e+00
 -6.8412840e-01
 -5.2707744e-01
  1.6797785e+00
  7.0905536e-01
  5.9866560e-01
 -1.8809341e-01
  2.0225279e+00
  7.7809030e-01
 -6.6769111e-01
 -1.8909390e+00
 -3.9545363e-01
  1.2195420e+00
  8.9663887e-01
 -3.5966367e-01
  1.5663637e+00
  1.0658557e+00
  8.0687743e-01
 -7.5058240e-01
  1.0130416e+00
 -3.4843538e+00
 -2.0397725e+00
 -1.0006926e+00
 -7.3027116e-01
  2.1101634e-01
 -4.9192953e-01
 -1.7076343e+00
  2.0631402e+00
 -7.9462075e-01
 -2.0732102e+00
 -7.4313718e-01
  1.4361544e+00
 -6.9734389e-01
 -2.0534937e+00
 -6.0995233e-01
 -1.8330175e+00
  1.4677241e+00
 -5.3499448e-01
 -1.2806664e+00
 -1.5389320e-01
  1.3647187e-01
 -6.4277315e-01
  2.9178598e+00
  4.0433636e-01
  9.7113204e-01
 -1.4857072e+00
  7.9647344e-01
  3.0504820e-01
 -6.0140324e-01
  3.4728581e-01
  9.0393168e-01
  3.4496534e-01
  9.3961125e-03
  1.5700234e+00
  3.8787088e-01
  2.2942297e+00
  5.4467231e-01
  1.2868965e+00
  2.0922866e-01
 -4.9864179e-01
  3.5348150e-01
 -6.9866590e-02
  2.0393198e+00
 -1.3790665e+00
 -1.2013659e+00
 -1.4972062e-01
 -1.0261678e+00
 -9.2762607e-01
 -1.8122756e-01
 -8.6950350e-01
 -5.3499204e-01
  1.0367689e+00
 -4.8468193e-01
  2.3233902e+00
 -2.4579687e-01
 -1.2176357e-01
  4.0341219e-01
 -1.6572796e-01
  1.4324106e+00
 -8.4779102e-01
 -3.0521753e+00
  1.3089869e+00
  1.0809339e+00
 -4.9705043e-01
  2.9687753e-01
 -9.4280022e-01
 -2.3964443e+00
  9.7878218e-01
  1.8473276e+00
 -1.1079207e-01
  1.4014058e+00
  7.3809874e-01
  3.0716342e-01
  1.4787260e-02
 -4.3522644e-01
 -3.4423450e-01
  1.1308620e+00
  9.1614431e-01
 -1.3305982e+00
  3.2025170e-01
  1.3408275e-01
  5.0835453e-02
  7.9152662e-01
 -3.9884634e-02
 -6.0774142e-01
  4.5178658e-01
 -1.1518451e+00
  1.8213665e+00
  1.7598400e+00
  4.9941677e-01
  1.6194551e+00
 -3.2059383e-01
  2.0317273e+00
 -8.5553920e-01
  2.4287839e+00
  8.0188501e-01
  1.8323678e+00
 -2.2152130e-01
  5.8156449e-02
  9.0371871e-01
 -1.3318366e-01
  2.4305160e+00
 -4.9391350e-01
  3.4866381e-01
 -1.4276017e+00
  4.4733560e-01
 -2.3754854e+00
  1.4910117e+00
 -1.8480424e+00
 -3.5017917e-01
  4.6544385e-01
 -1.2158809e+00
  7.6290482e-01
 -2.7229953e+00
 -1.7412214e-01
 -5.4801387e-01
  5.4435784e-01
  1.2190847e+00
  1.0543625e+00
 -3.0280750e+00
 -9.6547747e-01
  9.0557975e-01
  9.5596725e-01
 -9.2295563e-01
  1.4917425e+00
 -8.4744394e-01
 -9.8108494e-01
  2.3834195e+00
  8.0333315e-02
 -7.1024859e-01
 -1.7185774e+00
  6.5071754e-02
 -1.3610075e-01
 -9.0682906e-01
  1.1759756e+00
 -5.0741071e-01
  1.9030457e+00
 -2.1987917e+00
 -1.6761694e+00
 -7.7473247e-01
 -2.0769703e+00
  3.2559574e-01
 -4.3327853e-01
 -1.4226087e+00
  1.0490835e+00
  6.1689410e-02
  4.3133110e-01
 -2.1501639e+00
  1.8153778e+00
  4.4736755e-01
  1.8579605e+00
 -3.9604819e+00
 -3.6254686e-01
 -6.8421197e-01
 -2.6762905e+00
  9.5254165e-01
  1.6916736e+00
 -3.1477222e-01
  4.6145070e-01
 -2.2264875e-01
 -1.0008568e+00
  1.2108606e+00
 -5.9684855e-01
 -1.6677884e+00
 -1.0487463e+00
  1.2084842e+00
  1.4752825e+00
  9.9013603e-01
 -1.5111627e-01
  1.5577983e+00
  2.0155968e-01
  1.0862476e+00
  6.0851729e-01
  1.1814473e+00
  1.6919503e+00
 -1.6142744e+00
 -3.1467456e-02
  4.7092080e-01
 -2.6742308e+00
  3.3696029e-01
  1.1860591e+00
 -1.0320598e+00
  1.4469504e-01
  1.3833705e-01
  9.7279406e-01
  2.7908938e+00
  1.0113860e+00
  5.5868196e-01
  6.8481994e-01
  7.2455955e-01
 -5.2412653e-01
 -8.2587034e-01
  7.6702759e-02
 -9.3357718e-01
  8.0945051e-01
 -3.9242858e-01
 -1.6650965e+00
 -1.3182384e+00
  2.2915022e+00
  5.3875268e-01
 -6.6623348e-01
 -1.4303139e+00
  5.6543142e-01
 -1.2621919e+00
  3.5835650e+00
 -7.6442593e-01
  3.3394668e-01
  9.2290944e-01
  4.7994646e-01
  5.6168705e-01
 -5.3536779e-01
 -1.6762716e+00
 -3.2014320e+00
  2.7978077e+00
 -7.2074240e-01
  7.9767555e-01
 -1.8796706e-01
 -1.0047337e+00
 -1.4632061e-01
  1.1578195e+00
 -1.2883377e+00
  3.2525966e+00
 -1.1666637e-01
  1.6101818e+00
  1.2580692e+00
  1.0605698e+00
  1.3735851e+00
 -3.4818000e-01
 -1.7384146e-01
  1.4614578e-01
  2.0575912e+00
  1.0853391e+00
 -5.7961210e-03
 -7.5505775e-01
 -1.6322647e+00
  2.5491795e-01
 -2.9073665e-01
 -1.5751100e-01
  9.4883728e-01
 -1.9453328e+00
  6.3860995e-01
 -2.5329106e+00
 -1.9621457e+00
  8.8232702e-01
  4.3389952e-01
 -1.8787829e+00
 -2.0753548e+00
  1.1261432e+00
  1.5318562e-02
 -2.0236099e+00
  1.5539662e+00
 -2.9971619e+00
 -2.1054869e+00
 -2.6048956e+00
  2.6773584e-01
 -1.4214934e+00
 -1.0607589e+00
 -1.5172093e-01
 -1.5165589e+00
 -6.8311489e-01
 -4.9681398e-01
 -2.2192559e+00
  2.0820062e+00
 -2.5511169e+00
  2.1339746e+00
 -7.4203628e-01
  8.9404322e-02
  1.8909892e+00
  8.0952567e-01
 -7.2371870e-01
 -4.9754098e-01
 -1.3806223e+00
 -7.5806558e-01
 -8.9147717e-02
  2.3731644e+00
 -1.6094213e+00
 -1.7733158e+00
  5.6004286e-01
 -1.1759633e+00
 -4.4128421e-01
  1.1596496e+00
 -1.0923038e+00
 -1.4028139e+00
 -1.4867889e+00
 -4.3338615e-01
  8.3523655e-01
 -4.7721438e+00
 -7.6735908e-01
  1.2685750e+00
  1.1336790e+00
 -5.4557317e-01
 -1.7067331e+00
 -5.9460056e-01
  1.7107859e+00
  2.1095266e+00
 -2.6461098e-01
 -3.1722777e+00
 -1.5251493e-01
 -1.0670527e+00
 -1.0992079e+00
  1.2687111e+00
 -1.1611197e+00
  2.1214173e+00
 -1.5663888e+00
 -2.4315000e+00
 -1.3414457e-01
 -7.7782619e-01
 -4.2129341e-01
 -2.6589268e-01
 -1.6566691e+00
 -1.2730521e+00
  1.4095634e+00
 -8.8951212e-01
  6.0299700e-01
  1.2349358e+00
 -1.6710076e+00
  8.4771615e-01
  2.0991397e+00
  1.4546795e-01
 -1.2992635e+00
 -1.6980332e+00
 -2.8071983e+00
  1.7376972e+00
 -2.0628004e+00
  2.4058840e+00
  1.9342651e+00
 -3.8682604e-01
  1.3644419e+00
 -7.0618731e-01
 -5.3051166e-02
  2.8168244e+00
  8.3223199e-03
  6.1244917e-01
  1.0493574e+00
 -6.5113086e-01
 -3.4313581e+00
 -3.1529284e+00
  8.3557349e-01
  1.1943339e+00
  2.5490148e+00
 -7.2276062e-01
  1.7747033e+00
 -1.0666165e+00
 -4.3837243e-01
 -6.4599842e-01
  1.7918703e-01
 -2.1268518e-01
 -2.1440275e+00
  9.4466448e-01
  1.1020457e+00
  3.6810556e-01
 -3.3485535e-01
  6.4771008e-01
 -4.9389441e-02
 -1.6175636e+00
  8.0541557e-01
 -1.9942960e+00
  2.1795762e+00
  4.2715933e-02
 -1.0471147e-01
 -1.0358771e-01
  1.0176717e+00
 -2.6208094e-01
 -7.2469258e-01
  1.9438847e+00
 -2.8532560e+00
 -1.6334031e+00
  9.5541877e-01
  1.6534716e+00
  4.8913474e+00
  2.1942105e+00
 -1.3618960e+00
  2.4050149e-01
  3.2420838e-01
 -5.3805679e-01
 -2.1266880e+00
 -5.8743769e-01
  1.1436733e+00
  1.4525589e+00
  9.7318208e-01
 -3.6614558e-01
 -1.1305927e+00
 -2.5790348e+00
 -1.5153559e+00
 -1.2793789e+00
 -2.8918977e+00
  2.3871833e-01
 -2.3576722e+00
  2.8450659e-01
 -2.9554377e+00
 -1.2805785e-01
 -6.6086912e-01
 -5.7595298e-02
 -9.5715523e-01
 -7.2700119e-01
 -7.4199593e-01
 -6.9674367e-01
  5.4719228e-01
 -1.4801655e+00
 -3.4587517e-01
 -3.4546740e+00
  8.8002735e-01
 -4.4827342e-01
 -6.5929615e-01
  3.3973703e+00
  1.2778978e+00
 -6.0698771e-01
 -1.1071744e+00
  1.1672789e-01
 -3.7388650e-01
 -6.6267842e-01
 -4.6083134e-01
  8.6271501e-01
  2.2452056e+00
 -2.0540135e+00
 -8.2302219e-01
 -3.1954226e+00
 -5.2760136e-01
 -1.6675307e+00
 -1.1560444e-01
  1.9820800e-01
 -1.4752955e+00
 -1.4423407e+00
 -1.7624755e-01
 -8.4608924e-01
 -5.4010957e-01
 -7.7840894e-01
  1.8118080e+00
  3.5340577e-01
 -4.8495853e-01
 -9.9316426e-02
  2.7544725e-01
  4.2734194e-01
 -1.3483777e+00
 -1.1494888e+00
  1.3909558e+00
  8.8387340e-01
  2.7349043e+00
  4.5472366e-01
  1.9587250e+00
 -7.8158283e-01
  2.5222471e-02
 -8.6698169e-01
  8.3363032e-01
 -6.4493167e-01
  1.4032046e-01
  1.9757831e+00
  8.9261591e-01
  1.6952076e+00
 -1.0221132e+00
  4.5894241e-01
 -1.8385292e+00
 -5.1427799e-01
  1.7621500e+00
 -1.8846464e-01
 -1.4305145e+00
 -9.6312344e-01
 -2.0288963e+00
 -2.2476678e+00
  1.6923125e+00
  1.1479847e-01
 -1.2719117e-01
 -7.1993279e-01
  2.3535039e+00
 -1.9579035e+00
 -8.2749397e-01
  8.9188820e-01
 -4.2750721e+00
 -2.8538644e+00
  5.8373421e-01
 -5.6281453e-01
  7.7792966e-01
 -9.0623397e-01
 -1.1068256e+00
  9.9502957e-01
  1.1191237e+00
  6.1786622e-01
  3.3380849e+00
  7.8658813e-01
  9.6581250e-01
  1.7522697e+00
  2.0033612e+00
  6.5663554e-02
  2.2490118e+00
 -1.2631280e+00
  1.4512172e+00
 -2.8193355e-01
  3.3425529e-02
 -9.4594032e-01
 -1.2162377e+00
 -2.2290703e-02
 -1.2919966e+00
  1.1884828e+00
 -9.5458907e-01
 -1.2539486e+00
  1.0044065e+00
 -1.3948553e+00
 -2.7427227e+00
 -3.7942398e-02
 -1.7936187e+00
  6.4296204e-01
 -4.1122264e-01
 -3.7972569e-01
 -1.1369812e+00
  2.6317316e-01
  6.5498912e-01
 -2.3622549e-01
  1.4601853e+00
  2.6411363e-01
  9.8244315e-01
 -1.1045330e+00
  9.4686610e-01
  4.0178621e-01
 -1.3872799e+00
  2.0663200e-01
 -1.1546558e+00
 -1.7821975e+00
  1.0489696e+00
  1.0256104e+00
  2.8881850e+00
 -8.9805317e-01
  1.1621047e+00
  1.0368160e+00
  3.9521244e-01
 -8.2757437e-01
 -2.4130504e+00
  2.8667624e+00
 -3.8259083e-01
 -4.6244824e-01
 -1.1340529e+00
  9.1148883e-02
 -1.3374829e+00
  5.0490600e-01
 -3.0574489e-01
 -9.4197857e-01
  1.5003207e-01
 -1.5650430e+00
 -2.2045403e+00
 -3.3802274e-01
 -3.3711712e+00
 -3.4526021e+00
  4.6301365e-02
  1.0210627e-01
 -2.5027902e+00
  1.4604191e-01
  1.9514108e+00
 -7.9762650e-01
 -1.2111866e+00
 -3.5180843e-01
  1.6145939e+00
  1.1914990e+00
  2.1345820e+00
 -3.7164280e+00
  1.8291893e+00
  9.8884702e-01
 -1.7818986e+00
  1.2221233e+00
 -2.1116004e+00
 -7.1391100e-01
 -2.6565952e+00
 -8.2323402e-02
 -4.3703656e+00
  8.0770200e-01
 -8.2854408e-01
  1.6964316e+00
  3.1253803e+00
  1.3726145e+00
  2.6474397e+00
  2.2279581e-01
 -1.5786538e+00
 -8.5150290e-01
 -1.9863690e-01
 -3.0294180e-01
  8.6842366e-02
 -6.8251830e-01
 -3.9825508e-01
  1.0175425e+00
  7.4174964e-01
  9.6623905e-02
 -1.6959299e+00
  7.7767497e-01
 -1.8404776e-02
  4.3873575e-01
 -1.9684067e-02
 -4.4963983e-01
 -1.2694079e+00
  1.6428553e-02
 -1.4349421e+00
 -1.7199668e+00
 -2.6300192e-01
  2.6225183e+00
  1.3880429e+00
  1.5178132e+00
  1.1386920e+00
 -1.1212255e+00
 -4.2976490e-01
  5.9793776e-01
  1.3615836e+00
 -7.3640156e-01
 -2.4727612e+00
 -1.0049306e+00
  2.6240537e+00
 -1.1008111e+00
 -1.1579895e+00
 -8.7284392e-01
 -1.0803576e+00
  1.4096905e-01
 -1.4880797e+00
  8.1342429e-01
 -1.7802271e-01
 -2.4838185e-01
  1.1690488e-01
 -5.5491424e-01
  1.3383332e-01
  1.4699279e+00
  1.0572649e+00
  4.2116621e-01
  1.0024250e+00
 -1.0735484e+00
  2.7680269e-02
  3.9310485e-01
  1.3563231e+00
 -1.6770236e+00
 -8.4561282e-01
  2.7470285e-01
 -7.2829753e-02
  4.8753360e-01
  5.7296419e-01
 -1.0893370e+00
 -1.6741073e+00
 -1.3464909e+00
  8.0247498e-01
 -2.7318137e+00
 -1.8661238e-01
 -3.0217612e+00
  2.1413231e-01
 -3.3218655e-01
  2.0479550e+00
  6.8573231e-01
 -1.7052026e+00
 -7.4840027e-01
  7.2813094e-01
 -1.7909802e-01
 -1.0488709e+00
  6.5718478e-01
 -1.0336322e+00
  7.8967524e-01
 -2.5062273e+00
  3.2777897e-01
 -2.3125708e+00
  6.8097501e-03
 -9.7282398e-01
 -1.8023332e+00
  2.1083912e-01
  8.3774775e-01
  2.6035047e+00
  1.0396664e+00
 -1.6234883e+00
 -7.3159808e-01
  9.3689471e-01
  1.6456536e+00
  8.4662580e-01
  4.3967229e-01
 -3.5855651e+00
  3.5718033e-01
  1.0324603e+00
 -1.5481994e-01
 -1.5892749e+00
  2.4327927e+00
 -1.6592205e-01
 -2.4047506e+00
 -2.0440693e+00
 -2.5623276e+00
 -1.8540329e+00
  7.5459903e-01
  5.7587206e-01
 -1.0377994e+00
  2.3672411e+00
 -2.5218329e+00
 -1.4385505e+00
  3.8452110e-01
 -2.4617264e+00
  9.7898197e-01
 -1.0714865e+00
 -9.0300560e-02
 -1.5173621e+00
 -1.6637267e+00
 -1.4014518e+00
  9.7076011e-01
 -2.1638002e-01
  2.8854282e+00
 -1.1486603e+00
  5.5318400e-02
 -5.0244582e-01
 -5.2821332e-01
 -1.0527141e+00
 -2.2368605e+00
 -2.7880495e+00
  1.7802852e+00
 -8.5219586e-01
  5.8676487e-01
 -3.4995809e-01
 -9.4745374e-01
 -1.3950076e+00
  8.8316607e-01
 -9.7685379e-01
 -1.3106886e-01
 -2.0323694e+00
  3.5940373e-01
  2.6863900e-01
 -1.5895756e-01
  1.2025658e+00
 -1.3663867e+00
 -1.2485858e+00
 -1.4190947e+00
  1.1095023e+00
  8.9968628e-01
 -1.9373075e+00
  1.1994493e+00
 -8.5212278e-01
  2.2576261e-01
  1.2373871e-01
 -8.6671460e-01
 -1.9097966e+00
  1.6479833e+00
 -6.6716492e-01
  1.8541927e+00
  7.0726353e-01
 -6.3377953e-01
 -1.8723278e+00
  3.7176125e-02
 -1.0356717e+00
 -7.3325969e-02
  1.8373516e-01
 -7.5378114e-01
 -3.4001238e+00
  9.4909215e-01
 -6.1975312e-01
  9.2091185e-01
  3.1174901e-01
 -1.0066189e+00
 -7.8697258e-01
 -8.2918876e-01
  7.7547413e-01
 -2.5399365e+00
  5.4340070e-01
  2.0192452e-01
  1.2176249e-03
  8.9382714e-01
  2.2799797e-02
 -9.3843317e-01
 -8.6007416e-01
  2.0141311e+00
 -1.6219558e+00
  8.1561005e-01
  3.5906109e-01
  8.5842234e-01
 -3.9025548e-01
 -1.7427349e+00
 -8.1292493e-03
 -7.1978557e-01
  9.4087059e-03
  2.8167102e+00
  1.4858371e+00
 -2.8857336e+00
  1.0593344e-01
 -2.8082255e-01
 -3.3957016e+00
 -7.1670765e-01
 -2.3347471e+00
  6.4010817e-01
  1.2598431e-01
 -1.1614985e+00
  9.5817357e-01
  2.6100168e-01
  2.0792446e+00
 -9.2917472e-01
 -1.2320979e-01
 -5.6036001e-01
  1.1160418e+00
 -5.4976261e-01
 -2.7888033e+00
  8.0254567e-01
  3.5924324e-01
  1.1499609e+00
 -1.7210661e+00
  1.9405621e-01
 -1.2074580e-01
 -2.1146953e+00
  1.7523524e+00
  9.6612960e-01
  9.3239117e-01
 -1.7602929e+00
 -5.1213527e-01
  2.4380224e+00
  6.2303382e-01
  1.7307061e+00
  7.8647530e-01
 -7.3999935e-01
 -9.0649951e-01
 -2.6436360e+00
  1.8102306e+00
  1.2281059e+00
  1.2098056e+00
 -5.3882066e-02
  1.8961171e+00
 -2.2963614e+00
 -1.4752892e+00
 -6.2920678e-01
  4.7377011e-01
 -4.7982797e-01
 -4.0463704e-01
 -1.5558773e+00
 -7.6216954e-01
 -3.1788936e+00
  6.8615395e-01
  1.1683307e+00
 -2.8281322e+00
  1.1081265e+00
 -4.5011640e-01
  2.3948679e+00
 -8.6829203e-01
 -1.6814436e-01
  6.8373904e-02
 -1.2392205e+00
 -8.9616674e-01
 -1.3523095e+00
 -6.4374018e-01
 -4.3671966e+00
  2.0018382e+00
  4.7267157e-01
 -2.9128525e-01
 -1.3585637e+00
  6.9185458e-02
  1.0240345e+00
  5.7843876e-01
  1.8623377e-01
  7.9143815e-02
 -4.4360998e-01
 -2.4415243e+00
 -4.5643646e-01
 -7.6098442e-01
 -3.5842764e-01
 -1.9365548e+00
  2.6144344e-01
  2.2028041e+00
 -8.1942596e-02
  3.1701344e-01
 -6.3893884e-01
 -2.7748415e+00
  5.9402108e-01
  1.5693840e+00
 -1.2174933e+00
 -1.2238435e+00
 -3.9003578e-01
  1.5839009e-01
  1.4947704e+00
  4.4701648e-01
 -1.3110886e+00
 -1.0315808e+00
 -2.5959507e-01
 -7.7342004e-01
 -1.9843861e+00
  2.7915522e-01
 -1.1782417e+00
 -1.4516842e-01
  2.8090155e+00
 -2.1383600e+00
 -1.7267623e+00
  3.5057506e-01
  1.3685827e+00
 -1.8290076e+00
  2.3857901e+00
 -1.5478644e-01
  1.3889077e+00
 -2.9196289e+00
 -3.1693438e-01
  1.5728984e+00
 -1.5647808e+00
  6.6566926e-01
 -9.5268011e-01
  1.0378128e+00
 -1.3513342e+00
 -6.3354319e-01
 -3.3389297e-01
 -1.3169524e-03
  7.0234412e-01
 -6.4995992e-01
 -1.0586801e+00
  2.9898220e-01
  5.1331848e-01
  6.2280476e-01
  6.8184358e-01
  7.7126294e-01
 -1.6796186e+00
 -4.1812190e-01
 -6.8742216e-01
  2.5079048e-01
 -7.4451023e-01
 -1.0343190e+00
  8.9396209e-01
 -1.7414615e-01
  4.2602369e-01
  2.2802794e+00
  7.2625124e-01
 -2.4224002e+00
 -9.6330869e-01
 -3.7464299e+00
  1.9186677e+00
  2.0662656e+00
 -3.9339778e-01
 -1.3916248e-01
  3.1673894e+00
 -2.0726936e-01
  7.9077798e-01
 -5.0207072e-01
  8.9281607e-01
 -1.0057174e-01
 -1.1340355e+00
 -5.1250440e-01
 -5.3513843e-01
 -1.4130571e+00
 -6.4920586e-01
 -1.8157721e-01
 -1.9268979e+00
  1.6046586e+00
 -2.7715437e+00
  1.6463177e+00
  3.1050591e+00
  3.3923125e+00
  3.7053016e-01
 -6.5192020e-01
 -1.8150004e+00
 -7.4440634e-01
  2.4492702e+00
 -1.0824296e+00
 -1.3188594e-02
 -2.0368311e+00
 -6.7886639e-01
 -5.7861531e-01
 -2.0775402e+00
  2.2709813e+00
  7.8035861e-01
 -8.3089590e-01
 -2.8808184e+00
  6.2410676e-01
  5.7443947e-01
 -1.5833857e+00
  2.1443576e-02
  2.2777205e-02
  1.8164469e+00
 -3.0725339e-01
 -5.7809895e-01
  4.6174201e-01
  3.6588871e-01
  1.9712681e+00
 -4.6477932e-01
 -1.7860880e+00
 -1.5129156e+00
 -1.5399790e+00
  1.3425262e+00
  1.6544697e+00
  3.0059785e-01
 -3.0201289e-01
 -1.2439454e+00
  8.0248380e-01
  1.0694101e+00
 -2.0533206e+00
 -2.9248157e-01
 -1.3055997e+00
  4.3807885e-01
  1.2872380e+00
  3.0416362e+00
 -1.2376689e+00
 -5.2629530e-01
 -3.8746575e-01
 -1.5679032e-02
  6.6308838e-01
 -1.7541342e+00
 -3.1125087e-01
 -1.9204277e+00
 -1.0704908e+00
  4.4788566e-01
  1.8902403e+00
  1.9929184e-01
  1.0014062e+00
 -1.3545997e-01
  1.5458256e+00
 -5.5843186e-01
  2.1965706e+00
 -7.7679420e-01
  5.6819499e-01
  6.4687896e-01
  4.1697523e-01
  9.7410089e-01
  1.1774671e+00
 -1.9487767e-01
 -9.5050406e-01
  2.3122151e-01
 -1.8427383e+00
  4.2253229e-01
 -1.0143915e+00
 -7.3546058e-01
  1.1417897e+00
  3.3515903e-01
  1.6699911e+00
  5.2996469e-01
 -6.1064553e-02
  1.5641382e+00
 -1.5697976e+00
 -9.4108009e-01
 -4.3642640e+00
 -7.6615721e-01
 -5.1290947e-01
 -8.2092655e-01
  1.9619036e+00
 -1.1119325e+00
  4.5040289e-01
  7.3948330e-01
 -2.5229497e+00
 -2.3750715e+00
 -1.1837144e+00
 -1.5180739e+00
 -3.6181855e-01
  5.0266099e-01
  1.6592529e+00
 -2.1281257e+00
 -3.3281455e+00
 -4.4878864e+00
 -1.0460348e+00
 -1.1811913e+00
  1.5068088e+00
 -8.8051730e-01
  1.6898867e+00
  3.5231075e-01
 -6.5874124e-01
 -1.7452891e+00
  3.9328873e-01
  4.5058227e-01
  1.1396699e+00
  3.0649958e+00
 -7.5971627e-01
 -2.6439399e-01
  1.6098891e+00
 -2.7342134e+00
 -2.0410295e+00
 -2.9101651e+00
  5.5971658e-01
 -9.0608418e-01
 -1.4240621e+00
 -2.2130723e+00
 -1.4406589e-01
 -7.4190214e-02
 -9.4143394e-03
  9.0683538e-01
 -2.5673912e+00
  1.9268606e+00
  1.7493479e+00
  2.5133455e+00
 -1.3221520e+00
 -1.5736319e+00
 -1.6836774e+00
 -5.0341409e-01
 -2.1451740e+00
  7.1092337e-02
  8.7939745e-01
  6.1410439e-01
  2.9958969e-01
  2.0803294e+00
 -1.3875704e+00
 -2.5124149e+00
  7.8810698e-01
 -7.1717566e-01
  6.9493121e-01
  2.5175786e+00
 -4.7021732e-01
 -1.1404183e+00
 -1.9079587e+00
 -1.7110997e+00
 -9.2182142e-01
 -2.3084874e+00
 -2.3284984e+00
 -1.2526900e-01
  3.2932663e+00
 -5.3576303e-01
 -3.4315664e-01
  1.0700572e+00
  6.9399166e-01
  1.3161570e+00
  1.0077484e+00
  1.2448890e+00
 -1.3805720e-01
  7.4113053e-01
  1.5467330e+00
 -6.6494983e-01
  2.9605739e+00
  6.6073728e-01
 -9.7731310e-01
 -1.1242862e+00
  8.4700948e-01
  2.4100535e-02
 -6.1777234e-01
  1.9957296e+00
  8.0354518e-01
 -6.9063157e-01
  2.3903577e+00
 -1.8509581e+00
  2.2246776e+00
 -1.6611041e+00
 -3.4186959e+00
 -1.3949257e-01
 -1.6610444e-01
 -1.7634338e-01
 -1.3338367e-02
  1.2013872e+00
  1.2634047e+00
 -8.6069798e-01
 -1.1913605e+00
  2.0936077e+00
  1.0291818e+00
  3.9234424e-01
 -1.4833120e-01
 -1.9776074e+00
  1.8158275e-01
  1.3523600e+00
 -2.4030795e+00
 -1.5223459e+00
 -7.6637572e-01
 -7.1798569e-01
 -3.5050207e-01
 -3.7356120e-01
 -1.3200662e+00
 -9.0624189e-01
  8.5659051e-01
  7.6295346e-01
  3.2387730e-01
  1.5132552e+00
 -1.8639975e+00
  1.6123658e-01
 -1.3501853e+00
  6.3871282e-01
  4.7635084e-01
 -2.3428428e+00
  2.0691044e+00
  1.4902231e-01
  1.0413111e+00
  6.6676891e-01
 -3.2494012e-01
  1.4086721e-02
  1.4374802e+00
 -6.9840384e-01
 -3.0762666e-01
 -1.5016679e+00
 -1.1031501e+00
  3.5333312e-01
 -2.7559587e-01
 -1.4521141e+00
 -5.2722669e-01
 -2.1846072e-01
  7.5083679e-01
 -1.5786681e+00
 -1.9837930e+00
  1.7654985e+00
  1.0648940e+00
  7.5151420e-01
 -2.6908216e-01
  1.2051814e-01
 -1.0945163e+00
  2.2247326e+00
  1.4512035e-01
 -1.4790500e+00
  4.5333421e-01
 -3.2466272e-01
 -1.8342602e+00
 -1.4356390e+00
  1.5331132e+00
  1.7079115e-01
  6.6749817e-01
  3.8095617e-01
 -1.3767117e+00
 -4.3148264e-01
  2.1185205e+00
  1.4839228e+00
  2.2655214e-01
 -1.9849481e-01
 -1.3046229e+00
  5.3571898e-01
 -7.0939851e-01
  1.0213553e+00
  1.0208056e-02
 -2.5410311e+00
 -1.3207756e-01
 -1.7195351e-01
  1.0570645e-01
  1.3520536e+00
  4.2284602e-01
  2.8546435e-01
 -2.2155237e+00
  2.3658855e+00
 -9.4337296e-01
 -2.0337713e+00
 -1.9210712e+00
 -1.5891123e-01
  1.9738652e+00
  2.4835154e-01
 -2.8266041e+00
 -3.3477020e-01
 -2.3374394e-01
  3.5492589e+00
 -1.3542284e+00
 -7.6362848e-01
 -1.5119389e-01
  9.2287731e-01
  2.3934112e+00
  1.1374848e+00
 -1.0619893e+00
  7.5790697e-01
 -1.0165032e+00
  1.3721329e+00
 -2.7081523e+00
 -8.2171190e-01
  1.1226716e+00
  2.7697475e+00
 -3.7749258e-01
 -7.8945744e-01
  6.9740963e-01
 -2.7129194e-01
 -9.9113131e-01
 -1.3114434e+00
 -2.6130342e+00
  1.5060164e+00
 -1.0881890e-01
 -1.2156831e+00
 -6.7673522e-01
 -7.5531495e-01
 -1.7115278e+00
  5.6867439e-01
  1.6867580e+00
  9.6733373e-01
  2.3386421e+00
 -2.1216278e+00
 -2.2549613e+00
  1.5245597e+00
  9.0010840e-01
  2.2835281e+00
  1.2641119e+00
 -1.8437681e+00
 -8.8952082e-01
  4.2523119e-01
  3.1746513e-01
 -3.2145458e-01
  7.1790558e-01
 -5.9182655e-02
 -6.3060737e-01
 -1.7165439e-01
 -1.2103386e+00
  1.3053900e+00
  5.8644128e-01
  6.1258572e-01
  4.9575180e-01
 -1.3134024e+00
  6.3349354e-01
 -2.4904919e-01
  2.4052511e-01
 -1.3456726e+00
  1.8782750e+00
  3.2614956e+00
 -2.0360739e+00
 -6.1622852e-01
 -2.0164003e+00
  1.7679670e-01
  1.3296273e+00
  8.8478424e-02
  1.8448057e+00
  6.8632817e-01
  8.8526261e-01
  2.8867195e+00
 -3.2653503e+00
  2.8155010e+00
  6.9653898e-01
  7.3781693e-03
  5.4833394e-01
  2.8072958e+00
 -1.7742550e-01
  1.9008758e+00
  2.0413692e+00
  1.5945593e+00
 -3.4404519e-01
  1.2519512e+00
 -2.0996993e+00
 -7.6526397e-01
 -1.9752626e+00
 -2.8529122e+00
  3.1074321e-01
 -5.0915140e-01
 -9.2790329e-01
  7.7144486e-01
  1.1271695e+00
  7.4653745e-01
  3.3396566e-01
  1.5716721e+00
 -1.6937852e-01
  7.0473945e-01
  8.2973219e-02
  3.0976176e-01
  2.9153413e-01
  7.2959596e-01
 -1.9590443e+00
  1.1950239e+00
 -1.8539042e+00
 -2.0547156e+00
 -6.7397827e-01
 -1.0427082e+00
  1.0061000e-01
  3.6985395e+00
 -2.0817125e-01
  7.8295028e-01
  2.7689254e-01
 -3.0499556e+00
  1.3452098e+00
  3.6559743e-01
 -2.9645696e-01
  1.7234188e+00
 -1.7956514e+00
  9.7165436e-02
  5.8136094e-02
  2.7437216e-01
  1.7062789e+00
  5.8107579e-01
 -2.7813557e-01
 -1.3930199e+00
  1.1858678e+00
  1.7093664e-01
  5.3169465e-01
  1.7402205e+00
 -9.6917868e-01
  9.7244203e-01
 -8.9586273e-02
 -1.3547169e+00
  1.5963794e+00
  6.2668073e-01
  1.5093759e+00
 -5.1295727e-01
 -2.5207920e+00
  1.5882026e+00
  2.6698723e+00
  1.8404941e-01
  3.0015800e+00
 -1.2370224e+00
  1.6922493e+00
  2.3138170e+00
  3.1270897e-01
  1.2302719e+00
  1.7877301e+00
 -1.3882491e-01
 -1.2164516e+00
  1.3618341e-01
 -4.4353977e-01
 -7.4557775e-01
 -1.2903680e+00
  3.8392174e-01
  4.5338333e-01
 -1.7718961e+00
  5.8686870e-01
  1.1623386e+00
 -7.3180318e-01
  3.2274003e+00
 -2.5216934e-01
  9.9684125e-01
  1.7449084e-01
  1.6890523e-01
 -1.4444327e+00
 -5.6975126e-01
  1.7466701e+00
 -1.4763644e+00
 -4.5878726e-01
 -1.1977324e+00
 -5.8441502e-01
 -6.0298842e-01
 -2.7700086e+00
  2.1098092e-01
  2.6924932e-01
  9.5523536e-01
  1.1067878e-01
 -8.6137664e-01
  1.3015037e+00
  2.3413098e+00
 -2.0433531e+00
  1.3122482e+00
  1.1313965e+00
  7.7365565e-01
  1.3522495e+00
  4.1839644e-01
 -1.7613979e-01
 -1.0658729e+00
 -6.8567157e-01
  1.1415278e-01
  5.8484322e-01
 -1.6845456e+00
 -1.3211039e+00
 -8.0244279e-01
 -5.8087969e-01
 -1.1076936e+00
  5.4036129e-01
  2.1744072e-01
  2.1625493e+00
  1.1445898e+00
 -9.0296423e-01
 -8.0601120e-01
  3.8442159e-01
 -3.9922783e-01
 -2.4477937e+00
 -4.7175136e-01
  2.0918224e+00
  1.8489732e+00
  8.3247757e-01
  3.2538930e-01
 -1.0167210e+00
  1.8571001e-01
  1.6888094e+00
  5.2248321e-02
 -3.5946980e-01
 -6.7087644e-01
  1.3155043e+00
 -8.2656747e-01
 -5.9067428e-01
  2.5019937e+00
 -2.1530735e+00
 -3.2196257e-01
 -1.2799853e+00
  6.2144911e-01
 -1.9723548e+00
  8.2685310e-01
  3.4409556e-01
 -8.9002913e-01
  9.8126410e-03
 -6.1361253e-01
  1.6120454e+00
 -3.6209136e-01
 -4.9835247e-01
  1.9267880e+00
  1.5821579e-01
 -1.8769684e+00
  7.4418372e-01
 -1.2254238e+00
  2.5327869e-02
  4.5730451e-01
 -1.5368445e+00
 -1.3542135e+00
  2.0432577e+00
 -1.5129383e+00
 -2.3018153e+00
  8.0040723e-01
 -1.0600008e+00
 -1.1172869e-01
 -5.0952280e-01
 -1.6405581e+00
  7.3356068e-01
 -1.8495655e+00
 -1.3016621e+00
  2.3275986e-01
 -6.0317260e-01
  1.9778403e+00
  2.3334146e-01
 -1.7369082e+00
  1.6893618e+00
  3.6285198e-01
  1.7023514e-01
 -1.4057924e+00
  2.4380504e-01
  4.5822522e-01
 -1.0956141e+00
 -1.2154487e+00
 -4.9376956e-01
 -8.0261016e-01
  1.7286080e+00
  1.8948730e+00
  1.6108100e+00
  1.3416955e+00
  2.5887623e+00
  1.8265229e+00
  5.4748112e-01
  2.5440410e-01
  1.2694792e+00
  1.4277205e+00
 -5.9785742e-01
 -2.9503921e-01
 -1.0997585e+00
 -5.0968921e-01
  1.7542020e+00
 -1.5647825e+00
 -2.0151335e-01
 -2.3728681e+00
 -3.1954965e-01
 -1.4414705e-01
 -2.6969555e-01
  2.8788764e+00
 -3.3766205e+00
  7.9589695e-01
  1.2448814e+00
  1.2710646e+00
  3.7952876e-01
 -1.5885919e+00
 -1.2905285e+00
  2.9487407e-01
  3.4020214e+00
 -1.8009294e+00
 -6.0989094e-01
 -7.6726359e-01
  3.4401008e-01
 -1.3704432e+00
  2.0709114e-01
  3.4831145e-01
 -1.0939416e+00
 -8.1639057e-01
 -1.3495669e+00
  3.5549524e-01
 -5.6840193e-01
 -3.1466923e+00
 -1.2295141e-01
 -8.8163990e-01
  1.1063356e+00
 -8.2806551e-01
 -6.4769953e-01
 -4.6174321e-01
 -2.2818500e-01
  1.4763516e+00
  1.2328546e+00
 -1.3530393e+00
  3.8148788e-01
  1.2193295e+00
  5.7775253e-01
 -8.6398864e-01
 -3.1021783e-02
 -1.5771270e+00
 -1.0230390e+00
 -1.5460583e+00
  1.3086808e+00
 -2.8066738e-02
 -1.7397849e-02
 -2.9863316e-01
 -1.4571197e+00
  4.3153191e-01
 -1.4196224e+00
 -3.0715799e-01
  2.5384161e-01
  9.9989778e-01
  2.2186188e-01
  6.5714252e-01
  1.9956748e-01
 -3.6940509e-01
 -1.1326505e+00
  8.3882582e-01
  1.5870578e+00
  1.4454091e+00
  3.2543468e-01
  2.2799594e+00
 -7.6577652e-01
 -2.3540626e+00
  4.7752303e-01
 -7.4702364e-01
 -1.2348533e-01
 -9.3527830e-01
  6.0235359e-02
  2.3537488e+00
  2.6558146e-01
  1.1532388e+00
  8.4951568e-01
  5.7930833e-01
  4.1687822e+00
  9.1091204e-01
  3.7773401e-01
  2.4039133e-01
 -4.5233894e-02
  1.0423219e+00
  7.6187533e-01
  4.8462614e-01
  5.5493456e-01
 -1.0485037e-01
 -2.3860982e-01
  3.6484721e-01
 -1.6978395e+00
 -2.8666985e-01
  4.3555483e-01
 -2.2185156e+00
  1.6944025e-02
  1.8182899e+00
  1.0672923e+00
 -5.5999583e-01
  1.8076810e+00
 -1.5920647e+00
 -1.3654677e+00
 -1.4536211e+00
 -7.7222991e-01
 -1.3409860e+00
 -2.7403012e-01
 -6.8914896e-01
 -1.1504161e-01
 -1.6499355e+00
  2.0775233e-01
  8.2013631e-01
 -2.1412227e+00
  5.1343238e-01
 -7.3126793e-01
  1.9049335e-01
  1.8888007e-01
 -1.2427979e+00
 -1.4377284e+00
 -1.0935748e+00
  2.4273808e-01
  9.7038728e-01
 -1.7129463e+00
 -7.6945049e-01
  2.9192221e+00
 -7.7046502e-01
  4.0075427e-01
 -1.7134548e+00
  3.6206197e-02
  8.6809903e-01
  2.2926397e+00
  1.3954298e-01
  8.8568449e-01
 -3.1712625e+00
 -2.2959316e+00
 -3.6952257e-01
  2.4538901e-01
  7.3318154e-01
  2.1413033e+00
  1.0078696e+00
  1.2853012e+00
 -1.4823775e+00
 -2.5379808e+00
  1.6255660e+00
  6.7155808e-01
 -1.3604429e+00
  1.4411628e-01
  1.8481972e+00
 -2.5095751e+00
  4.3291944e-01
  2.1573532e+00
  8.8744712e-01
  1.1586151e+00
  2.2705076e+00
 -7.8348684e-01
 -3.1070685e-01
 -1.9357070e-01
  9.4836020e-01
  7.2106309e-02
  1.8764969e+00
 -1.1824242e+00
 -1.8117498e+00
  1.2831252e+00
 -6.4718425e-01
 -1.2685536e+00
  1.5475601e+00
 -1.5775679e-01
 -9.6658900e-02
  2.4208529e+00
 -3.9895651e-01
 -5.9446597e-01
  4.4584593e-01
  1.4351344e-01
  1.8230794e-01
  1.3552109e+00
 -4.6254581e-01
  5.1844370e-01
  2.2482684e+00
 -1.0726502e+00
 -7.0401043e-01
  3.0305514e-01
  1.4950913e+00
 -1.1137079e+00
 -1.4214884e+00
 -5.7431370e-01
 -1.0748992e+00
  1.0995427e+00
 -3.3665190e+00
  5.9392983e-01
 -2.2805943e+00
  2.3515444e+00
  1.1310804e+00
 -5.6348693e-01
  3.0575693e+00
 -1.2504627e-01
  1.4427691e+00
 -4.0315661e-01
 -1.1125939e+00
 -4.5211989e-01
 -1.1061395e-01
  1.0263556e+00
 -1.8277954e+00
  2.4181657e+00
  7.5581938e-01
  2.3353848e-01
  2.1679085e-01
  9.3121862e-01
  5.3306687e-01
  3.5922605e-01
  3.4667740e+00
  2.0560205e+00
 -2.9252884e+00
 -9.3525493e-01
 -1.7528743e+00
  1.0965397e+00
 -2.0598719e+00
 -2.0319085e+00
 -6.3121516e-01
 -1.2106072e+00
 -2.0530686e+00
 -1.1242932e+00
  3.6885912e+00
 -1.5641759e-01
 -4.6088183e-01
  9.5784622e-01
  4.5344630e-01
 -1.2798436e+00
  1.3307005e-01
  2.5836513e+00
 -1.3052312e+00
 -4.1739783e-01
  3.7659700e+00
 -7.7418727e-01
 -9.9261481e-01
  7.3649818e-01
  7.5481534e-01
 -6.8181258e-01
  1.2549304e+00
 -8.2461256e-01
 -1.1753390e+00
  3.5225737e-01
 -6.0780078e-01
  8.9268887e-01
  1.2450165e+00
 -1.8701917e+00
 -4.0952089e-01
  1.4086119e+00
 -2.8809172e-01
 -9.9844337e-01
 -8.3176923e-01
 -2.7785595e-03
 -9.8808151e-01
  1.7191212e+00
  9.1006362e-01
 -1.8662320e+00
 -5.6999320e-01
 -1.7532624e+00
  1.1762255e+00
  2.0447481e+00
 -3.8854080e-01
  5.1871252e-01
 -3.1012022e+00
 -2.9470799e+00
 -7.9248571e-01
 -2.9012761e-01
 -1.4130254e+00
  3.1418035e+00
  1.2660292e+00
 -6.9242522e-02
 -6.0758889e-01
 -1.2827609e+00
  5.8525819e-01
  7.5885594e-01
 -1.5723941e+00
  8.8726050e-01
  2.8795812e-01
 -1.8291990e-01
  1.0613052e+00
 -1.2541091e+00
  6.3105190e-01
  1.5519817e+00
 -1.2356186e+00
 -1.2751201e+00
 -2.0784001e+00
 -9.5367742e-01
  7.9684740e-01
 -2.7297160e-01
  7.0370477e-01
  3.6276597e-01
 -1.0863481e+00
  1.5175140e+00
  1.5360358e+00
 -1.8512969e+00
 -1.2514851e+00
 -1.6789685e+00
  1.9494429e-01
 -5.1681566e-01
  9.7702140e-01
 -2.8945317e+00
 -3.5431379e-01
 -3.8641748e-01
  1.1906424e+00
 -6.2737450e-02
 -3.7338096e-01
  3.2264397e-01
 -4.0313622e-01
  3.5776186e-01
 -7.8682590e-04
  1.1399864e+00
  1.3636805e+00
  5.6804883e-01
  1.0958104e+00
 -1.7379259e+00
  4.2433196e-01
  2.2533331e+00
 -3.9114565e-01
 -1.3897455e-01
  1.3982279e+00
  1.8379849e+00
  8.5923821e-01
  1.6321453e+00
 -9.0087920e-01
  1.3786320e-01
 -1.0566124e+00
 -2.8921375e-01
 -3.7518466e-01
 -6.1926425e-01
  3.2359716e-01
 -9.1507572e-01
 -1.5003668e-01
 -1.5689366e+00
 -2.8572580e-01
 -1.3313608e+00
  1.4959091e+00
 -3.7514505e-01
 -5.6453168e-01
  2.0776370e+00
 -1.6531119e+00
 -1.6471585e+00
 -2.4731438e+00
  7.5568461e-01
 -1.0991186e+00
  3.2856731e+00
  1.5121957e+00
  8.9774036e-01
  1.3807034e-01
  3.0039091e+00
 -4.7757652e-01
 -9.6134454e-01
  2.2357218e+00
 -1.3224764e+00
  1.9200280e+00
  2.3685004e-01
  2.3227396e+00
 -1.5088636e+00
 -2.3897797e-01
 -1.4009383e+00
  1.3075448e+00
 -1.5470885e+00
  3.8009277e-01
  2.6744907e+00
  2.1316600e+00
 -1.9527076e+00
  1.2676878e-01
 -7.5651413e-01
 -5.8773738e-01
  2.8707525e-01
 -3.3040306e-01
 -7.2136629e-01
 -3.1035032e+00
 -1.4752043e+00
 -1.3321580e+00
 -9.5562738e-01
  4.1439334e-01
  9.4677114e-01
  3.2716444e-01
 -8.8454849e-01
  1.7225070e+00
 -1.2451949e+00
 -1.1505683e-01
  1.0750394e+00
 -6.5689343e-01
  1.7937523e+00
  2.0400763e+00
  7.3512220e-01
  2.6358368e+00
 -6.6126072e-01
  1.7514078e-01
 -1.2798665e-01
 -1.6627948e+00
  1.2310880e-01
 -6.0190839e-01
 -3.7122861e-01
 -8.1078094e-01
 -1.5027926e+00
 -1.0306240e+00
  8.5117859e-01
 -9.1679037e-01
 -7.7071661e-01
 -2.1388192e-01
 -4.6945477e-01
 -2.5146496e+00
 -1.5644109e+00
  2.6161519e-01
 -2.2912975e-01
  1.2215267e+00
  7.1846801e-01
 -1.5526479e+00
 -2.5220368e+00
 -2.7266793e+00
  6.8924442e-02
  2.0930727e+00
 -1.5494097e+00
  1.5481023e+00
  5.1289988e-01
  4.5538306e-01
 -1.0567094e+00
 -2.4920616e+00
 -1.0776207e+00
  4.9277690e-01
 -8.8715923e-01
  5.2424794e-01
  2.2561991e+00
  2.2573805e+00
  7.7107847e-02
 -2.1549311e+00
  2.6062864e-01
 -1.4530160e+00
  1.3759131e+00
  5.0556189e-01
 -6.1281502e-01
 -1.9874497e-01
  1.3481735e+00
 -2.4965313e-01
 -1.8402116e-01
 -5.3308970e-01
 -1.1883814e+00
  1.9488269e-02
  6.3827902e-01
  6.6751850e-01
 -1.4329528e+00
 -7.7863193e-01
  2.0352414e+00
 -4.1942734e-01
 -1.4148568e-01
  3.5796869e-01
  8.8003612e-01
  5.0383252e-01
 -1.9315669e-01
 -1.1213393e+00
  3.1759875e+00
  1.7709159e+00
  3.6922541e-01
  2.8223476e+00
  5.6576502e-01
  3.9041355e-01
 -1.4568224e+00
 -7.0279175e-03
  2.2305101e-01
  3.1279859e-01
 -5.5787277e-01
 -1.8335512e+00
 -6.9598466e-01
  1.0501734e-01
 -1.7012603e+00
 -1.2072424e+00
 -7.1405345e-01
  6.1460495e-01
 -4.3432789e+00
 -9.3997598e-01
  1.1149217e+00
 -6.9498670e-01
 -1.4577479e+00
 -2.7802577e+00
 -2.4578638e+00
 -4.2892769e-01
  1.3955651e-01
 -1.8141510e+00
 -7.4147928e-01
 -2.5725794e-01
  1.0259917e+00
 -2.0039968e+00
  9.2823249e-01
 -3.7212029e-01
 -1.7658124e+00
  2.3056550e+00
 -2.4910996e+00
  1.6248740e+00
 -5.8286154e-01
  1.8709685e-01
  1.6658484e+00
  6.6682041e-01
  5.9172386e-01
  1.0615852e+00
  2.6590943e+00
 -1.7050856e+00
 -5.2061397e-01
  4.0620748e-02
 -2.5011411e-01
  8.0755019e-01
  2.0826807e+00
 -1.4375008e+00
  5.7524264e-02
 -6.8397474e-01
 -3.4667735e+00
  1.0314480e+00
  9.5659846e-01
  4.4611815e-02
 -1.6575953e+00
 -1.3052787e-01
 -1.4503766e+00
 -4.0087050e-01
 -3.3869985e-01
  1.7887404e+00
  9.4063443e-01
  4.6027789e-01
  1.9170116e+00
 -6.2277138e-01
 -7.3666269e-01
  4.5329356e-01
 -1.4947202e+00
 -3.0579969e-01
  1.7571797e+00
 -1.4882222e+00
  5.3936416e-01
 -1.2106125e+00
  6.4743614e-01
  8.3694530e-01
  2.1800346e+00
 -9.9897847e-02
  4.1232392e-01
 -2.1761379e+00
 -9.0513867e-01
  4.4699919e-01
  5.8986557e-01
  4.1628417e-01
  1.5852377e+00
 -3.7664121e-01
  1.7474139e+00
 -1.5491816e+00
  6.8576658e-01
  2.5457785e+00
  1.2473991e+00
 -1.0592369e+00
 -7.4499565e-01
  1.1057070e+00
  1.5420660e-01
 -1.4662310e+00
 -2.8648162e-01
 -1.1636926e+00
 -1.4095562e+00
  9.1800636e-01
  1.8101864e-01
 -1.2600011e+00
 -8.0236197e-01
 -1.1493511e+00
  2.5051084e+00
  1.5707110e+00
  3.2395619e-01
  4.1827086e-01
 -7.4230707e-01
  1.7365460e+00
 -2.5810444e-01
  2.5098361e-02
  3.3236638e-02
  1.7851621e-01
  1.6413792e+00
 -2.1856759e+00
  1.0824124e+00
  1.5806620e+00
  1.5137308e+00
 -8.1564111e-01
 -2.5834212e+00
 -3.2039991e-01
 -1.6690773e+00
 -2.3320796e+00
  7.7402323e-01
 -1.2757095e+00
 -2.0334191e+00
  1.5490518e+00
  4.4352362e-01
  4.5328822e-02
 -6.8555135e-01
  5.6221211e-01
 -2.4725780e+00
  9.8243600e-01
 -7.4604952e-01
 -1.8934591e+00
  2.3919148e+00
  1.9509201e+00
  1.2979591e+00
  1.6883481e+00
 -8.5452783e-01
 -4.9174669e-01
 -1.4097850e+00
  5.3799683e-01
 -1.5496460e-01
 -6.7009300e-02
  2.1642403e-01
  2.0647674e+00
 -8.3962035e-01
 -9.1412205e-01
  9.4341588e-01
 -4.1162629e-02
 -9.8983395e-01
 -5.3826040e-01
  6.6245735e-01
  1.1383715e+00
 -1.5600829e+00
 -6.0657722e-01
  1.3152757e+00
 -2.2852649e-01
 -1.0857379e+00
  2.8575131e-01
  1.1287789e+00
  7.4281558e-02
  1.7039089e+00
 -1.0104293e+00
 -1.1340660e-01
 -1.3654727e-01
  1.6519653e-02
 -1.1938974e+00
  9.5239955e-01
 -4.8613271e-01
  1.3029216e-01
  7.4322009e-01
 -7.3365229e-01
 -2.9877597e-01
 -1.5804769e+00
 -5.5145651e-02
  6.1634511e-01
 -1.5576336e+00
  1.4008664e+00
 -9.1715217e-01
 -8.9525342e-01
 -4.3973696e-01
  5.2449381e-01
 -2.8718293e-01
  6.6737813e-01
  1.9697164e+00
  1.9504068e+00
  4.9394194e-02
 -1.0886467e+00
 -2.3908324e+00
  1.7009239e+00
 -1.3213681e+00
 -1.5165452e+00
  1.7481617e+00
 -6.1301810e-01
  2.4145412e+00
  4.3897843e-01
 -2.3860961e-01
  8.7147212e-01
  5.7355559e-01
  3.2322937e-01
  2.0765398e+00
 -3.9476350e-01
 -4.0084429e+00
  1.7999487e+00
  2.9821537e-02
  7.1881944e-01
 -4.1135055e-01
  6.3540864e-01
 -1.8584969e+00
 -2.7719965e+00
  7.8937553e-02
  6.4550139e-02
  4.0401185e-01
 -1.8040331e-02
 -1.9060980e+00
  1.2332653e+00
  1.3544353e+00
 -1.2358364e+00
 -7.0303619e-01
 -2.2061074e+00
 -2.5270021e-01
  1.2376580e-01
 -1.0237654e+00
 -4.6304345e-01
 -7.3115015e-01
  2.2901533e+00
  9.5405567e-01
 -1.7005169e+00
  2.5722146e-02
 -1.5667207e+00
 -5.6269950e-01
 -6.0427088e-01
 -3.7107842e+00
 -2.9524347e-01
  4.7954905e-01
 -1.9843949e+00
  1.1551733e+00
 -2.7387324e-01
 -8.9992446e-01
 -1.2803674e+00
  3.4961346e-01
 -2.0883956e+00
 -4.5426071e-01
  1.8387053e+00
 -6.4986885e-01
 -1.5363482e+00
 -1.9326543e+00
  4.3733639e-01
 -2.1944108e+00
 -1.4910429e+00
 -1.3104757e+00
  9.2009318e-01
 -2.6711886e+00
 -7.6099342e-01
 -1.4238025e+00
 -1.9077791e-02
  1.7089302e-02
 -1.9766942e+00
 -2.9952857e+00
  2.7769957e+00
  3.5225348e+00
  9.2614919e-01
  3.1729075e-01
  3.7401786e-01
  1.1991041e+00
 -9.7859758e-01
  8.9023685e-01
  6.5568066e-01
 -8.2357323e-01
 -1.4301708e-02
 -2.7811942e+00
 -1.2825069e+00
 -8.9010280e-01
  4.9084169e-01
 -1.6679367e+00
  1.9916433e-01
  3.2849934e+00
 -7.6865506e-01
  4.4382352e-01
 -9.8863196e-01
 -1.5844672e+00
 -3.7824431e-01
  3.5532147e-01
  1.9946991e-02
  7.5931126e-01
 -2.6357658e+00
  2.8529236e-01
 -2.3395917e+00
 -1.4422208e+00
 -6.3722730e-01
 -3.0740327e-01
 -1.9108944e+00
 -1.5283422e+00
 -6.0761184e-01
 -2.7468488e+00
  3.2952121e-01
  1.5389473e+00
 -2.3166180e+00
 -1.2462541e-01
 -9.8914593e-01
  7.7301693e-01
  4.7444436e-01
  6.0184572e-02
  1.7728254e-01
 -3.4160620e-01
 -2.4005920e-01
 -1.6123624e+00
 -5.7799411e-01
  1.3117142e+00
 -7.6953381e-01
  2.9511297e+00
  3.3897469e+00
 -1.4678682e+00
  5.7180578e-01
 -1.9545095e-01
  8.9484978e-01
 -2.4486260e+00
 -9.7036701e-01
  1.1346191e+00
 -3.5925153e-01
  3.5048226e-01
 -8.8472700e-01
  2.1892331e+00
  2.7920763e+00
 -1.5756549e-01
 -8.0845791e-01
 -9.7782284e-01
  1.6456852e+00
  2.9439464e-01
  7.0834786e-01
 -6.9760287e-01
 -1.8889369e+00
  2.7396679e-01
  2.5591138e-01
 -1.9017456e+00
  9.5792651e-01
 -8.1033939e-01
 -1.9706601e+00
 -4.4513708e-01
 -1.5741832e+00
  3.8491371e+00
 -4.4360942e-01
 -6.8230742e-01
 -2.7127752e-01
  2.6262823e-02
 -2.8126528e+00
  9.5854050e-01
 -7.7169675e-01
  8.8595873e-01
  7.9069954e-01
  5.4842882e-02
 -2.5174985e+00
  6.4022654e-01
 -1.0938848e+00
 -2.0036428e+00
 -7.6378214e-01
  3.9419892e-01
  7.2851086e-01
 -1.1814348e-01
  3.2415915e-01
  2.2155629e-01
  2.0300765e+00
  1.2533090e+00
 -7.0109844e-01
 -8.2015526e-01
 -1.1020685e-01
 -3.5728034e-01
  1.6929774e+00
  3.1507400e-01
  8.6153930e-01
  3.7276182e-01
 -1.0732839e+00
 -1.1401644e+00
  1.4393998e+00
  9.2261858e-02
 -3.0430111e-01
  2.1197336e+00
  1.5103908e+00
  9.8622012e-01
  2.0552046e+00
 -1.7608877e+00
 -3.9078188e-01
  1.3132276e-01
 -2.0265250e+00
 -8.0388623e-01
  4.5215377e-01
 -7.9372567e-01
  7.2987574e-01
  1.5525151e+00
  2.9668598e+00
 -4.5518571e-01
 -2.5523305e-02
 -1.7254387e-01
 -6.0036176e-01
  9.1687715e-01
 -1.6889155e-02
 -9.3468440e-01
  2.7277609e-02
 -1.1045113e+00
 -2.3809488e+00
 -1.6759741e-01
  4.2747357e-01
  1.2024034e+00
  1.0570787e+00
  1.2900571e+00
 -1.4763680e+00
  2.3117151e+00
  3.1981428e+00
 -1.3286009e+00
  1.0651809e-01
 -7.3486000e-01
  7.1648902e-01
 -3.7674656e+00
  3.7896988e-01
 -1.0630983e+00
 -2.8938935e+00
 -1.3566362e+00
 -6.2771696e-01
  9.3833965e-01
 -1.3569207e+00
  5.7720828e-01
 -1.8314925e-01
  1.7870994e+00
  3.8432443e-01
  2.4182127e+00
  8.0809891e-01
  7.7348638e-01
  1.1701839e+00
  1.0566018e+00
  1.3863121e+00
  9.8954856e-01
  6.4870870e-01
  2.0495993e-01
 -1.8123987e-01
  4.3872437e+00
 -2.3858294e+00
 -7.3278725e-01
 -9.8000395e-01
 -2.4500115e-02
  2.1598446e+00
 -3.5995859e-01
  3.9614949e-01
 -1.4958222e-02
  3.8869205e+00
 -1.6081878e+00
 -2.7636984e-01
 -7.2390985e-01
 -4.6919957e-01
 -8.7617600e-01
 -1.9871683e+00
  1.0113168e+00
 -1.2830129e-01
 -3.6486259e+00
  2.2962530e+00
  9.2801225e-01
 -7.9540169e-01
 -1.1808163e+00
 -1.2467424e+00
 -1.8679326e+00
  1.5693567e+00
 -7.5932425e-01
 -1.8732055e+00
  1.0795039e+00
  8.4267122e-01
 -8.0369413e-02
  2.6799881e+00
 -7.1500129e-01
  4.2832777e-01
 -1.5927643e+00
  2.2946148e+00
 -1.9804153e+00
  7.0427930e-01
  1.8963830e-01
  1.6598318e+00
  1.0517392e+00
  5.1305312e-01
 -5.6886142e-01
 -6.9202822e-01
  4.0030497e-01
 -1.6573846e-01
  1.1201385e+00
 -2.2602920e-01
 -7.1117687e-01
 -1.8719733e+00
 -4.9151132e-01
  2.1940275e-01
  1.5287181e+00
 -2.6989293e-01
  1.3307759e+00
  6.4466703e-01
  1.5611719e+00
 -4.5079377e-01
 -1.7577887e+00
 -7.7983819e-02
  5.1192373e-01
  1.3350068e+00
 -1.3134407e+00
 -1.4440829e-01
 -1.4156504e+00
 -1.1264727e+00
 -9.8378617e-01
 -1.4479077e-01
 -2.5933713e-01
 -7.8506422e-01
 -1.3620683e-02
  1.7578381e-01
  1.5287299e+00
  1.1010401e+00
 -5.6409895e-01
 -1.8662143e+00
  2.4049587e+00
  2.6574554e+00
  8.0606788e-01
 -1.7255877e+00
 -6.8026328e-01
  1.2676308e+00
  2.3144143e+00
 -9.8260683e-01
  2.9675052e-01
 -1.1134325e+00
 -2.5205977e+00
  5.3688961e-01
 -1.0427319e+00
 -1.4331601e+00
 -1.0402173e+00
 -1.1793540e+00
 -7.7479118e-01
  1.0071081e+00
 -3.5627085e-01
  1.6094677e+00
  2.3153959e-01
  1.9626069e-01
 -2.7888567e+00
 -7.2596753e-01
 -2.3325796e+00
 -3.5926810e-01
  9.7685236e-01
 -1.5320814e-01
 -1.5261620e+00
 -1.5134587e+00
  4.5109570e-01
 -5.8782637e-01
  1.5268706e+00
 -9.7722006e-01
  3.6831632e+00
 -2.2942099e-01
 -2.0279367e-01
  8.5760665e-01
  3.2490596e-01
 -4.7696653e-01
 -4.0234305e-02
  1.1030273e+00
 -2.0440943e+00
 -1.0382808e+00
  5.5954480e-01
 -2.5013127e+00
  2.2448504e+00
  5.5210412e-01
 -1.4011278e+00
  1.3008419e+00
  2.3127146e+00
 -9.9975967e-01
 -2.7659221e-02
  2.1429710e+00
 -1.7226491e+00
 -3.7031224e+00
 -5.6079727e-01
  1.1193994e-01
  1.0104990e+00
  1.2506560e+00
  2.1975238e+00
  1.0212481e+00
 -2.9877412e+00
  8.2783347e-01
  9.7238421e-01
 -4.5031227e-02
  1.2199906e+00
  1.4636810e+00
 -1.5691450e+00
  7.5679767e-01
 -1.4934913e+00
 -9.8788254e-02
 -1.9065616e+00
 -7.5640219e-01
 -8.7006050e-01
  2.3180377e+00
  5.6865191e-01
 -7.8084564e-01
 -3.2187896e-03
  1.9096570e+00
  1.4387108e+00
 -5.0430882e-01
 -5.5960858e-01
 -1.3596022e+00
  2.6735418e+00
 -9.8982072e-01
  4.8409429e-01
  1.4341452e+00
  3.9497054e-01
  8.6583269e-01
 -1.0629814e+00
  1.8103385e+00
 -4.2906600e-01
 -1.1914210e+00
 -1.2586007e+00
 -1.5199665e+00
  2.5174853e-01
 -1.7304342e+00
 -6.7839926e-01
 -8.0871135e-01
 -9.5639086e-01
  5.4703569e-01
 -1.0718514e+00
  5.1502520e-01
  1.6940681e+00
 -5.2304310e-01
  6.3664176e-02
 -1.0711411e+00
  1.3525164e+00
 -3.0370078e+00
  3.4670067e+00
  9.9466830e-01
 -2.1245854e+00
 -1.7547504e+00
 -6.3269073e-01
 -5.6364661e-01
 -1.7258000e-02
  1.5314902e+00
  1.3659245e-01
  1.2777369e+00
 -1.1194584e+00
 -2.0622528e+00
  9.5776272e-01
  1.9453049e+00
 -1.5914487e+00
 -2.5910769e+00
 -1.4793479e+00
 -4.0353388e-01
  1.8995769e+00
 -7.0492578e-01
 -1.0741689e+00
 -1.0918117e-01
  1.0456752e+00
  9.9300772e-01
 -1.5578593e+00
  2.4626732e+00
 -8.4444034e-01
  2.3748019e+00
 -3.5954845e-01
 -9.7465611e-01
 -2.3781571e-03
 -2.3584744e-01
  1.2385576e+00
 -9.0122962e-01
 -3.3299316e-02
  2.2292564e+00
 -6.8135250e-01
  2.2128490e-01
 -1.3220572e+00
  9.0583575e-01
 -1.1663756e+00
  7.9551476e-01
 -5.1197714e-01
 -6.5144342e-01
 -1.0819529e+00
  1.8289280e+00
 -5.3849433e-02
  2.3297493e+00
  2.3770465e-01
  3.0237815e-01
  6.8280900e-01
  9.6432942e-01
  1.4034773e+00
  9.1413915e-01
 -1.8200934e+00
  4.0495613e-01
  2.6507220e-01
  1.1770506e+00
 -1.0231785e+00
 -6.1377442e-01
  2.2303755e+00
 -1.4679602e+00
  3.2398341e+00
  3.2041612e-01
 -6.1136043e-01
  3.5372463e-01
 -1.1453580e+00
  4.1864261e-01
 -1.2655476e+00
 -2.7942416e-01
  1.3656060e+00
 -1.1439081e+00
  2.1622894e-02
  3.6309990e-01
  2.0828574e+00
 -1.5358067e+00
 -7.2984070e-01
  2.7015585e-01
 -4.2591539e-01
  2.2644429e+00
 -8.6957741e-01
  9.6408725e-01
 -1.5658255e+00
  6.5762854e-01
  5.8051622e-01
  7.8994262e-01
 -1.5352876e+00
 -4.1320589e-01
  3.7333423e-03
 -2.0380406e+00
 -1.1254839e+00
 -1.5891827e+00
 -2.0840681e+00
 -2.5002673e-01
 -1.1910789e-01
 -1.3010684e+00
 -1.1584251e+00
  9.6277773e-01
  7.2670288e-02
  1.0746990e+00
  2.8839912e+00
 -1.7635664e+00
  3.0834203e+00
  1.4678050e+00
  2.3813002e+00
 -1.1518463e-01
  5.6581867e-01
 -5.5177253e-01
 -1.3104389e+00
 -9.1976190e-01
  6.3918775e-01
  1.1459497e+00
  1.0952587e+00
 -1.5747701e+00
  4.0851501e-01
 -4.3277688e+00
 -4.5351291e-01
  1.7651252e-01
  1.1525824e+00
  1.1682551e+00
  2.2619374e-02
  4.4142982e-01
  6.9380420e-01
  1.1598468e+00
 -1.2598743e+00
  6.0881239e-01
  1.1609062e+00
 -4.6327448e-01
  1.4135795e+00
 -3.4825366e+00
 -6.4574665e-01
 -4.4107276e-01
 -1.5042229e-01
  2.4412818e+00
  1.2070449e-01
 -5.7869589e-01
 -8.5195613e-01
 -2.4265206e+00
  1.5838841e+00
 -2.0133188e+00
 -2.3876336e+00
 -8.6207813e-01
  1.6352912e+00
  1.3010665e+00
  2.7190188e-01
 -2.4926248e-01
  2.7460017e+00
 -6.1627358e-01
 -1.3368950e+00
  2.6072222e-01
  2.6992112e-01
 -2.8212470e-01
 -5.1989955e-01
 -1.2114345e+00
 -8.8510633e-01
 -2.5057283e-01
 -1.0217906e+00
  1.6736891e+00
 -1.3986810e+00
 -3.3049864e-01
 -5.9735578e-01
 -4.6806467e-01
 -6.0218501e-01
  1.0005676e+00
 -4.1564733e-01
  1.4730102e+00
 -1.6215975e+00
 -2.8106329e+00
 -8.3414906e-01
  1.0676770e+00
  3.7079516e-01
 -1.3045001e+00
 -1.2948283e+00
  1.4297127e+00
 -7.5644428e-01
 -1.4633084e-02
 -1.5467086e+00
  9.9543959e-01
  3.1402841e-02
 -1.2550385e+00
  2.2945385e+00
  1.4775062e+00
  1.1951368e-01
  1.3125610e+00
  6.5447253e-01
 -6.2039363e-01
  1.5343013e+00
  4.6705779e-01
  1.3245130e-01
 -1.4272515e-01
 -9.3357898e-02
  1.3434862e-01
  2.9750174e-01
 -3.3409045e+00
  6.5884644e-01
 -9.3489605e-01
  2.5206275e+00
 -1.3447572e+00
 -7.0773238e-01
 -9.5471042e-01
 -3.6456831e-02
  1.1571144e+00
 -2.0539103e-01
  2.5053380e+00
  3.2199445e+00
  6.1650324e-01
 -5.4350471e-01
  1.1759325e+00
  2.8924400e-01
 -1.7859808e+00
 -1.7211956e+00
 -8.0736834e-01
 -4.8961276e-01
  3.2720895e+00
  1.0127559e+00
 -9.1099149e-01
 -2.0296445e+00
 -6.7864090e-01
  1.5506606e+00
 -1.8392062e+00
  2.0921767e+00
  9.3974704e-01
 -7.9835707e-01
 -5.4649460e-01
 -8.8739496e-01
 -6.0635602e-01
  1.6323454e+00
 -1.0794942e+00
  9.7500461e-01
 -5.6238973e-01
  2.5116217e+00
  8.8227439e-01
 -2.9627115e-01
  1.8154297e+00
 -5.9898192e-01
 -1.2602857e+00
  8.5005784e-01
 -1.9661412e-01
  1.5100758e-01
  2.6295016e+00
 -2.6224062e+00
  7.6446223e-01
 -2.7962482e-01
  5.0335449e-01
 -9.3003911e-01
 -4.1727918e-01
  2.1148858e+00
 -8.6804205e-01
  5.3924942e-01
  1.0146241e+00
 -8.8244736e-02
 -1.2026125e-01
 -6.3517743e-01
 -1.6061560e+00
  2.5504131e-02
 -7.4397963e-01
 -5.8203131e-01
 -3.6014789e-01
 -1.1830566e+00
 -2.6804533e+00
  6.6614658e-01
  5.0372630e-01
 -7.7325624e-01
  1.6336411e+00
 -2.9284573e+00
 -7.2361296e-01
 -4.1273212e-01
 -1.0587498e+00
 -1.3645342e-01
  9.2442669e-02
 -2.0242105e+00
 -5.5306858e-01
 -5.9082872e-01
  1.1357096e+00
  4.4852549e-01
  3.3124292e-01
  1.8193971e+00
 -1.9365703e+00
 -2.6744554e+00
  4.6015680e-01
 -2.3815581e-01
  2.6136434e+00
  7.3789075e-02
  1.5874187e+00
 -1.4264607e+00
  5.2235955e-01
 -1.5871310e+00
 -3.2169538e+00
  2.0317373e+00
  9.5908678e-01
 -1.6871142e+00
  3.8090494e-01
  5.5250502e-01
  2.9830289e-01
 -8.7886059e-01
  1.2896912e+00
 -2.9852500e+00
 -6.3627928e-01
 -4.6532819e-01
  1.8117653e+00
  3.6545646e-01
  1.9422495e+00
 -1.3728381e+00
 -2.0710034e+00
  1.4491171e+00
  1.4392047e+00
 -1.1827379e-01
 -1.6321574e+00
  1.4058229e+00
  3.4356010e-01
  1.4372162e+00
  9.4546056e-01
 -1.7112324e+00
  1.8257669e-01
 -1.1699474e+00
 -9.2632800e-01
 -2.9987234e-01
  2.3401415e+00
 -5.8718562e-01
 -6.9902515e-01
 -3.1628633e-01
  1.8078284e+00
 -7.1394980e-01
 -6.0484987e-01
 -1.1309459e+00
  1.7291833e-01
 -1.6804551e+00
 -1.0385402e+00
 -3.9572069e-01
  6.4068370e-02
 -7.5852543e-02
  6.6749752e-01
  1.5328850e+00
  8.3136630e-01
  1.9728037e+00
 -2.7913101e+00
  2.4754648e+00
  8.3678281e-01
  5.1632798e-01
 -1.8866585e+00
  5.8910251e-01
 -2.3983182e-01
 -2.6130626e+00
  2.5398555e-01
 -4.1848990e-01
 -7.7990912e-02
  2.6847010e+00
  1.6088329e-01
  1.8421847e-01
  7.0966661e-01
  8.7633657e-01
  1.5282739e-02
 -1.8829716e+00
  2.2232864e+00
 -1.5308362e-01
 -2.5105443e+00
  1.5051337e-01
 -4.8857313e-01
 -2.1891844e+00
 -1.7712554e+00
 -9.0769887e-01
 -1.3008351e+00
 -4.2760801e-01
 -2.5237830e+00
  5.1849961e-01
  1.4972394e+00
 -3.7028575e-01
 -1.3277625e+00
  2.4519005e+00
  3.4237447e-01
 -3.9308712e-01
 -2.0343096e+00
 -1.5517893e+00
  4.0690970e-02
  5.2259135e-01
  4.9843949e-01
  1.0465566e+00
 -1.9221431e+00
  2.6269777e+00
 -1.0903254e+00
  9.1515459e-02
  5.1152956e-01
  6.7206746e-01
  7.5733371e-02
 -5.5877186e-02
  5.3618771e-01
 -6.1563373e-01
 -8.9160031e-01
 -8.8830590e-01
 -1.5767925e+00
 -1.4816796e+00
  5.6078339e-01
  1.2499083e+00
 -6.7596930e-01
  8.5933542e-01
 -1.8583158e-01
  3.1072800e+00
  6.2498200e-01
  7.0221257e-01
 -4.0507016e-01
  3.5121953e+00
 -6.7715675e-02
 -1.2819308e-01
  3.1052437e-01
  4.7777572e-01
 -2.1454570e+00
  4.0412033e-01
  3.4435594e-01
  4.8018378e-01
 -7.9843950e-01
 -1.6307786e+00
 -2.3643537e+00
 -2.5546116e-01
 -9.3380421e-01
 -1.7751231e+00
  6.2469578e-01
 -1.8589606e+00
 -1.6882255e+00
  2.5761170e+00
  9.5176131e-01
 -1.1524316e+00
 -1.0281996e+00
  8.4721893e-01
 -1.0571058e+00
 -8.6667824e-01
 -5.2147543e-01
 -1.5242089e+00
  1.1904861e+00
 -4.4512463e-01
 -1.6243737e+00
 -1.2862066e+00
 -5.1904237e-01
 -3.5922673e+00
 -6.0807353e-01
 -4.3914422e-01
  5.2627712e-01
 -1.2606325e+00
  1.0936406e-01
 -3.9515886e-01
  7.0778531e-01
  2.3077528e-01
  9.6177775e-01
  2.7519145e+00
 -2.0379725e+00
  1.0619504e+00
  5.1715267e-01
 -1.5008353e+00
 -1.0433309e+00
  1.4284495e+00
  9.5805925e-01
  2.7713602e+00
 -6.6296780e-01
  2.0112818e-01
 -1.5352384e+00
 -2.4647129e-01
 -8.9153118e-02
  7.7167785e-01
 -6.7671591e-01
  1.0069901e+00
 -2.8659983e+00
 -1.5341874e+00
 -1.0100529e+00
 -3.0950427e+00
 -3.6407557e+00
 -1.5165101e-01
  1.3173375e+00
 -1.0983081e+00
  8.1728888e-01
  1.2944454e+00
 -2.9270840e-01
 -9.1529149e-01
  9.2173547e-01
  1.6569636e+00
 -2.0100770e+00
 -1.5545382e-01
 -2.9263526e-01
  3.3744056e+00
 -8.1104237e-01
  2.9118219e-01
  6.8120027e-01
 -1.7755173e-01
  5.9405893e-01
 -1.1803179e+00
  5.3203214e-02
  3.6208493e-01
 -1.8606373e+00
 -1.3711766e+00
 -3.2909486e-02
 -1.4351188e-01
 -2.0625093e+00
  3.2984167e-01
 -9.2272140e-02
 -3.0059639e-02
  3.0075412e+00
  4.3939747e-02
  3.8248092e-01
  3.9973092e-01
 -2.4905477e+00
  5.3819662e-01
 -2.6240747e+00
  2.1327748e+00
 -1.5436245e+00
 -2.2779092e-02
  4.8746142e-01
  2.5320169e-01
 -6.1209071e-01
  1.3242666e+00
 -2.6235349e+00
 -1.9300883e+00
 -2.3002085e-01
  1.6644751e+00
  2.9610059e+00
  5.6428730e-01
  5.4531693e-01
  1.2885631e+00
  5.0417930e-01
  2.0314107e+00
 -2.2871189e+00
  9.6321756e-01
  1.2800676e+00
  1.6275399e+00
  2.4405171e-01
  1.3388884e+00
 -2.2155342e+00
  1.0641750e+00
 -2.5430052e+00
  2.3710105e+00
  5.3565031e-01
 -1.8597593e+00
 -1.5239590e+00
 -7.7392679e-01
  5.7203948e-01
  1.2561898e+00
  8.8302612e-01
 -2.3845504e-01
  8.5872746e-01
 -3.8143268e-01
 -1.0770578e+00
  1.3810942e+00
 -9.9550650e-02
  3.8599203e+00
 -6.8576318e-01
 -4.3643469e-01
  1.4819986e+00
 -2.8657923e+00
 -1.0953947e+00
 -4.8784953e-01
 -1.1038647e+00
 -5.8296984e-01
  7.8742808e-01
  1.0107515e+00
 -2.0109723e+00
 -1.7865470e-01
  3.9181960e-01
  2.6754382e+00
  1.1772698e+00
  5.8751827e-01
  3.2118831e+00
 -3.5998733e+00
 -8.2573998e-01
 -7.9316401e-01
 -2.1410033e-01
  1.2180601e+00
  1.7697256e+00
  9.1879046e-01
  7.4067855e-01
  8.1808323e-01
  2.7627853e-01
 -1.0339732e+00
 -3.8881093e-01
 -3.0226691e+00
 -9.3083507e-01
  1.6319212e+00
  2.2965407e-01
 -2.9330857e+00
  9.7679394e-01
  6.2200248e-01
  7.2247607e-01
 -1.6727167e+00
 -1.1771353e+00
  1.5882220e+00
  1.3532662e+00
 -1.2696817e+00
 -2.3143947e+00
 -1.4186155e+00
  7.2276801e-01
 -1.8507622e+00
 -2.9150575e-01
 -8.1781588e-02
 -4.1660106e-01
 -5.8317882e-01
 -2.1656844e-01
 -2.7723897e+00
  3.9219329e-01
 -9.9215634e-02
  4.9069995e-01
 -4.5294223e+00
  1.2241412e+00
 -2.2894332e+00
  6.6410381e-01
  2.3665558e-01
 -1.8896914e+00
 -3.0297688e-01
 -2.6251116e+00
 -1.7866121e-01
 -1.9265889e-01
 -2.6464477e-01
  2.4090407e+00
  1.1544964e+00
 -8.3609331e-01
 -2.6729608e+00
 -1.8430495e+00
  3.5665616e-01
  4.7924006e-01
  5.1516736e-01
 -3.2532200e-01
  1.6791987e+00
 -1.2568806e-01
